{"type":"LSTM","options":{"inputSize":35,"inputRange":35,"hiddenLayers":[20,20],"outputSize":35,"decayRate":0.999,"smoothEps":1e-8,"regc":0.000001,"clipval":5,"maxPredictionLength":100,"dataFormatter":{"values":["hi","1","hello","hi there","howdy","hi everyone","hello everyone","howdy everyone","hi mammoth","hello mammoth","bye","2","cya","good bye","goodbye","gnight","good night","see you","see you later","see you tomorrow","see you guys","see you everyone","good bye everyone","bye everyone","i have to go","i got to go","take it easy","have a nice day","have a good day","k i gtg cya","lol","3","lmao","heh","funny","funny guy","so funny","thats funny","lols","ha","ha ha","youre funny","your funny","ur funny","too funny","very funny","rofl","lmfao","weather","4","whats the weather","whats the weather like","hows the weather","is it raining","is it windy","is it sunny","is it snowing","is it cold","is it hot","how is it outside","what is the temperature","yes","5","absolutly","i guess","i agree","i think so","you bet","yas","ya","ok","sure","totally","okay","alrighty","sure thing","yeah","yea","mhmm","no","6","no thanks","nty","nope","no way","never","i cannot","i cant","i dont think so","i dont","i dont want too","how are you","7","hows it going","how are you doing","sup","yo","wasup","whats up","whats good","whats new","whats going on","hows everything","hows life","how are things","hows your day","hows your day going","good day","good morning","good afternoon","good evening","welcome","good to see you","how do i","8","how do i get roles","how do i join","how do i advance","how do i submit my stats","how do i submit stats","how do i become a member","how do i get sub","how do i get main","i need help","help me","help"],"indexTable":{"1":2,"2":17,"3":23,"4":25,"5":27,"6":28,"7":29,"8":30,"h":0,"i":1,"e":3,"l":4,"o":5," ":6,"t":7,"r":8,"w":9,"d":10,"y":11,"v":12,"n":13,"m":14,"a":15,"b":16,"c":18,"g":19,"s":20,"u":21,"k":22,"f":24,"p":26,"j":31,"stop-input":32,"start-output":33,"unrecognized":34},"characterTable":{"0":"h","1":"i","2":"1","3":"e","4":"l","5":"o","6":" ","7":"t","8":"r","9":"w","10":"d","11":"y","12":"v","13":"n","14":"m","15":"a","16":"b","17":"2","18":"c","19":"g","20":"s","21":"u","22":"k","23":"3","24":"f","25":"4","26":"p","27":"5","28":"6","29":"7","30":"8","31":"j","32":null,"33":null,"34":null},"characters":["h","i","1","e","l","o"," ","t","r","w","d","y","v","n","m","a","b","2","c","g","s","u","k","3","f","4","p","5","6","7","8","j","stop-input","start-output","unrecognized"],"specialIndexes":[32,33,34]}},"input":{"rows":36,"columns":35,"weights":{"0":0.004008058458566666,"1":-0.7323033809661865,"2":0.5366448760032654,"3":0.12677565217018127,"4":0.05725990980863571,"5":-0.5621871948242188,"6":0.10893650352954865,"7":-0.3715452551841736,"8":-0.07433541864156723,"9":-0.49356314539909363,"10":0.056679487228393555,"11":-0.5409356951713562,"12":0.07798387855291367,"13":-0.5248531699180603,"14":-0.05847864970564842,"15":0.23576465249061584,"16":0.30273202061653137,"17":-0.09348190575838089,"18":0.09714028239250183,"19":0.08264800161123276,"20":0.5797014832496643,"21":-0.39840373396873474,"22":0.18644791841506958,"23":-0.09310431033372879,"24":-0.24558888375759125,"25":-0.022753756493330002,"26":-0.09836702793836594,"27":-0.27791035175323486,"28":0.6736483573913574,"29":0.18609175086021423,"30":-0.018247360363602638,"31":-0.25572019815444946,"32":0.06665767729282379,"33":0.07923255115747452,"34":-0.061250749975442886,"35":-0.2126816362142563,"36":-0.20839378237724304,"37":-0.2728084921836853,"38":0.16385036706924438,"39":0.2759549617767334,"40":-0.005065731704235077,"41":0.6426124572753906,"42":-0.14104704558849335,"43":-0.5503444671630859,"44":-0.29567280411720276,"45":0.47097110748291016,"46":-1.3056303262710571,"47":-0.598064124584198,"48":-0.21861283481121063,"49":-1.1060311794281006,"50":0.48533377051353455,"51":0.054320964962244034,"52":0.0041491249576210976,"53":0.3259357511997223,"54":0.5731602311134338,"55":1.4958778619766235,"56":0.18897145986557007,"57":0.017306460067629814,"58":1.0560182332992554,"59":-0.010433671064674854,"60":0.078142911195755,"61":-0.10412968695163727,"62":0.38080012798309326,"63":1.103340983390808,"64":-0.10638026148080826,"65":-0.04190604388713837,"66":-0.5286495685577393,"67":0.757168710231781,"68":-0.16416405141353607,"69":-0.4607239365577698,"70":0.8415564894676208,"71":0.3656247854232788,"72":-0.8232787847518921,"73":-0.1442265808582306,"74":-1.7881189584732056,"75":0.28045812249183655,"76":0.20700818300247192,"77":-0.00881950557231903,"78":0.22517886757850647,"79":1.0380277633666992,"80":-0.7071167230606079,"81":0.7471796870231628,"82":0.2918042540550232,"83":1.5048372745513916,"84":-0.695030152797699,"85":-0.8131081461906433,"86":1.3602166175842285,"87":-0.34507861733436584,"88":1.227644443511963,"89":-0.7074621319770813,"90":-1.1301262378692627,"91":0.7937787175178528,"92":-0.9092916250228882,"93":1.0015760660171509,"94":0.9710914492607117,"95":-0.3119784891605377,"96":-0.02661457657814026,"97":0.37903711199760437,"98":-1.2017914056777954,"99":-0.9965812563896179,"100":0.8727652430534363,"101":0.9535017609596252,"102":-0.26709091663360596,"103":-0.3197709023952484,"104":0.7993507981300354,"105":-0.05960088223218918,"106":-0.4556625187397003,"107":2.0950183868408203,"108":-1.3253499269485474,"109":0.6750250458717346,"110":-0.141224667429924,"111":-0.30841001868247986,"112":-0.2838223874568939,"113":0.2437548041343689,"114":-0.5064361691474915,"115":-1.1685668230056763,"116":-0.1204986721277237,"117":0.12180833518505096,"118":-0.041246697306632996,"119":1.9808506965637207,"120":-0.27574121952056885,"121":-2.436924934387207,"122":-1.1299456357955933,"123":-0.03183595463633537,"124":0.1022273451089859,"125":0.4679115116596222,"126":-2.184922218322754,"127":0.6423337459564209,"128":-1.062026023864746,"129":-1.4160103797912598,"130":-1.1967737674713135,"131":0.26620087027549744,"132":0.015682052820920944,"133":0.33217233419418335,"134":0.8377243280410767,"135":-0.03553016483783722,"136":0.32448068261146545,"137":0.6500912308692932,"138":0.1952633261680603,"139":-1.1119959354400635,"140":0.46783652901649475,"141":-0.6198944449424744,"142":0.10598314553499222,"143":-0.5841199159622192,"144":-0.2866770625114441,"145":-0.17818227410316467,"146":0.314098596572876,"147":0.15915866196155548,"148":0.0199436005204916,"149":0.5095035433769226,"150":-0.017646176740527153,"151":0.2700762450695038,"152":0.41400521993637085,"153":0.56517493724823,"154":-0.3820877969264984,"155":0.2182096689939499,"156":-0.08280935138463974,"157":0.0020537099335342646,"158":0.15464872121810913,"159":-0.13911089301109314,"160":-0.5406811237335205,"161":-0.035203468054533005,"162":-0.10098002105951309,"163":0.7729637026786804,"164":-0.17201463878154755,"165":-0.13934510946273804,"166":0.15879017114639282,"167":-0.050688695162534714,"168":-0.5026637315750122,"169":-0.215635746717453,"170":-0.27313148975372314,"171":-0.01983543299138546,"172":0.13927055895328522,"173":-0.12570542097091675,"174":0.13376523554325104,"175":-0.6589454412460327,"176":0.7747089266777039,"177":-1.4398547410964966,"178":0.4830001890659332,"179":-1.0501585006713867,"180":1.3842864036560059,"181":0.09242332726716995,"182":-0.24047031998634338,"183":-0.10808834433555603,"184":-1.4734890460968018,"185":0.17929120361804962,"186":-1.2596473693847656,"187":-0.5242707133293152,"188":0.9639559388160706,"189":-0.7816442847251892,"190":-1.658097743988037,"191":1.2873337268829346,"192":-1.49276602268219,"193":-0.043384652584791183,"194":0.39939355850219727,"195":-0.48732057213783264,"196":1.5865983963012695,"197":0.5586174130439758,"198":1.4538750648498535,"199":1.5293036699295044,"200":-0.39211753010749817,"201":0.27646222710609436,"202":-0.17801225185394287,"203":-0.31374508142471313,"204":-0.918974757194519,"205":2.5305562019348145,"206":1.3298072814941406,"207":2.1050472259521484,"208":-0.5288401246070862,"209":0.9225451350212097,"210":0.5047124028205872,"211":0.690563976764679,"212":-0.923199474811554,"213":0.3640837073326111,"214":0.6307635307312012,"215":-0.3342288136482239,"216":0.15396888554096222,"217":-0.23198948800563812,"218":0.09641987830400467,"219":0.766463041305542,"220":1.0708683729171753,"221":0.7150871157646179,"222":0.017459306865930557,"223":-0.8714369535446167,"224":-0.2335994690656662,"225":-0.04652218520641327,"226":-0.28428179025650024,"227":1.3070757389068604,"228":-0.8965279459953308,"229":0.3085130751132965,"230":0.38974425196647644,"231":0.9981775879859924,"232":-0.31270721554756165,"233":-1.722102403640747,"234":0.6874202489852905,"235":0.9262675642967224,"236":-0.07664816826581955,"237":-0.6587377786636353,"238":-0.2912485599517822,"239":0.2673597037792206,"240":-1.2200688123703003,"241":-0.14271537959575653,"242":-1.2772729396820068,"243":-0.03806784003973007,"244":0.9285506010055542,"245":0.767092764377594,"246":0.6797782182693481,"247":-0.30198028683662415,"248":0.5356588363647461,"249":-0.017974894493818283,"250":-0.822701632976532,"251":1.0777018070220947,"252":-1.0337291955947876,"253":0.86295485496521,"254":0.1659962683916092,"255":0.9899195432662964,"256":0.6726254224777222,"257":-0.5846465229988098,"258":-0.3929215371608734,"259":-1.1833102703094482,"260":0.33783039450645447,"261":-0.9472818970680237,"262":-0.38364338874816895,"263":-0.8849982619285583,"264":1.0869319438934326,"265":0.6166231632232666,"266":0.3754042387008667,"267":-0.4230841398239136,"268":0.6953217387199402,"269":0.24116066098213196,"270":0.4241962134838104,"271":-0.9776424169540405,"272":-0.6733541488647461,"273":0.44095316529273987,"274":0.9306583404541016,"275":-0.3723888099193573,"276":-0.5258256793022156,"277":-0.011324748396873474,"278":-1.058986783027649,"279":0.48259586095809937,"280":0.36248716711997986,"281":-0.3737708032131195,"282":-0.8532710671424866,"283":-0.16458097100257874,"284":0.01224659476429224,"285":0.028448238968849182,"286":0.5031119585037231,"287":0.0344032421708107,"288":-0.7460702657699585,"289":0.6926344037055969,"290":0.37024056911468506,"291":-1.5850293636322021,"292":-0.12932613492012024,"293":-0.8863410353660583,"294":-0.6804945468902588,"295":1.1908670663833618,"296":0.204445481300354,"297":0.876284122467041,"298":0.6153238415718079,"299":0.15974324941635132,"300":0.9097738862037659,"301":0.9758957624435425,"302":0.6692804098129272,"303":-0.5520042181015015,"304":0.3461807668209076,"305":1.1838562488555908,"306":0.38020169734954834,"307":0.5204495787620544,"308":-0.3735792636871338,"309":-0.01456690113991499,"310":0.03336222842335701,"311":-2.0593056678771973,"312":1.3518850803375244,"313":-0.41166648268699646,"314":0.6418052315711975,"315":-0.7964162826538086,"316":0.08909443765878677,"317":0.40282735228538513,"318":0.2600972354412079,"319":0.8841953277587891,"320":0.8403626084327698,"321":-0.30595895648002625,"322":0.37909752130508423,"323":-0.7248995900154114,"324":-1.2645964622497559,"325":0.30953091382980347,"326":-1.5774937868118286,"327":-0.6529670357704163,"328":-0.16490516066551208,"329":0.24063317477703094,"330":-0.6307043433189392,"331":0.6957509517669678,"332":-0.5547926425933838,"333":-0.5574749112129211,"334":-0.1149846762418747,"335":0.6458920240402222,"336":-0.5269899368286133,"337":0.14298740029335022,"338":0.9894981384277344,"339":-0.18952642381191254,"340":-0.7055457234382629,"341":0.05562962219119072,"342":0.1330573558807373,"343":1.2695062160491943,"344":-0.4340198040008545,"345":0.2081841677427292,"346":0.6563228368759155,"347":0.7642236948013306,"348":0.20410476624965668,"349":-0.6926834583282471,"350":-0.5288881659507751,"351":0.06924478709697723,"352":-0.6293588280677795,"353":0.8482258319854736,"354":0.9017757177352905,"355":0.5360277891159058,"356":0.6094975471496582,"357":0.031148947775363922,"358":-0.9382514953613281,"359":0.43971365690231323,"360":0.6367908120155334,"361":-0.3330593705177307,"362":-0.40375372767448425,"363":-1.5134671926498413,"364":-0.4579450190067291,"365":-0.7372017502784729,"366":-0.5018304586410522,"367":1.684792399406433,"368":-0.06511852890253067,"369":0.1544257253408432,"370":1.356937289237976,"371":0.533214271068573,"372":0.5720873475074768,"373":-0.8307347893714905,"374":0.12026037275791168,"375":0.5092084407806396,"376":-0.1434166580438614,"377":0.36876198649406433,"378":0.8278204798698425,"379":0.014905384741723537,"380":0.37000882625579834,"381":-0.8100159168243408,"382":0.27433937788009644,"383":-0.029181499034166336,"384":0.34080713987350464,"385":0.5157531499862671,"386":-0.31915605068206787,"387":0.7203800678253174,"388":-0.002026295755058527,"389":0.1946771740913391,"390":-1.3046499490737915,"391":0.6400404572486877,"392":-0.7776274085044861,"393":-0.26619651913642883,"394":-0.34900709986686707,"395":0.8307093977928162,"396":-0.5970928072929382,"397":0.589592456817627,"398":-0.9546603560447693,"399":-0.7333196997642517,"400":0.3347757160663605,"401":0.19900447130203247,"402":0.3875943422317505,"403":0.2527307868003845,"404":0.6971310377120972,"405":1.277241826057434,"406":-0.5066163539886475,"407":0.8020605444908142,"408":1.503638505935669,"409":-0.20875051617622375,"410":-0.862129807472229,"411":0.3052801191806793,"412":-0.07699280232191086,"413":0.24416476488113403,"414":0.8955209851264954,"415":-0.3417756259441376,"416":-0.1800515353679657,"417":0.43764790892601013,"418":-0.15647625923156738,"419":0.08541515469551086,"420":0.5087401270866394,"421":-0.9977419972419739,"422":0.42570027709007263,"423":-0.6827967166900635,"424":0.21747754514217377,"425":-1.0390712022781372,"426":0.1535915583372116,"427":-0.6510181427001953,"428":-0.448350727558136,"429":0.35860249400138855,"430":-0.5208441019058228,"431":0.0936465710401535,"432":0.7572648525238037,"433":-0.7890563607215881,"434":0.24490557610988617,"435":0.503648579120636,"436":-0.6324848532676697,"437":0.30746370553970337,"438":-0.43522539734840393,"439":-0.23065978288650513,"440":0.2428918033838272,"441":-0.3142009377479553,"442":0.6126147508621216,"443":-0.9120472073554993,"444":-0.6337060928344727,"445":0.024972768500447273,"446":0.169667586684227,"447":-0.5061100125312805,"448":0.07461398839950562,"449":0.27913185954093933,"450":-0.7332964539527893,"451":-0.18128792941570282,"452":-0.1696750372648239,"453":0.28096717596054077,"454":0.44589874148368835,"455":-0.3109484910964966,"456":0.1439722776412964,"457":0.6906303763389587,"458":0.09954368323087692,"459":-0.5707219839096069,"460":-0.2451743483543396,"461":-0.45864051580429077,"462":-0.23833414912223816,"463":0.08811145275831223,"464":-0.6903666257858276,"465":-0.26226893067359924,"466":-0.6934338808059692,"467":0.36006617546081543,"468":0.29000306129455566,"469":0.3901776373386383,"470":-0.37779414653778076,"471":-0.1876523643732071,"472":-1.6661489009857178,"473":0.7675045132637024,"474":-0.2621384859085083,"475":0.18818971514701843,"476":-0.6708963513374329,"477":0.23051556944847107,"478":1.5720418691635132,"479":-0.22038805484771729,"480":-1.3565036058425903,"481":0.32770437002182007,"482":0.6953149437904358,"483":-0.06397385150194168,"484":0.5169272422790527,"485":0.45283982157707214,"486":0.81910640001297,"487":-0.35619914531707764,"488":0.2438487708568573,"489":-0.6601501107215881,"490":-0.1303626447916031,"491":1.270358681678772,"492":-0.179881751537323,"493":0.6624519228935242,"494":1.5279285907745361,"495":0.23544898629188538,"496":0.17786093056201935,"497":-0.27479565143585205,"498":0.2842234969139099,"499":-0.3273129463195801,"500":0.8634373545646667,"501":-0.5721021294593811,"502":-0.7821303606033325,"503":-1.2521380186080933,"504":0.42604532837867737,"505":-0.21807807683944702,"506":-1.137071132659912,"507":-0.023346012458205223,"508":-1.5292154550552368,"509":0.22859007120132446,"510":0.24439534544944763,"511":0.4006885886192322,"512":-0.2736688256263733,"513":-0.41099676489830017,"514":0.002966573229059577,"515":0.18040348589420319,"516":-0.5372278690338135,"517":-0.7960402965545654,"518":0.35361626744270325,"519":0.9190992712974548,"520":-0.7207386493682861,"521":0.022877784445881844,"522":1.0928443670272827,"523":-0.21781297028064728,"524":0.05091419443488121,"525":0.4934955835342407,"526":1.6457620859146118,"527":-0.1900261491537094,"528":-0.21960146725177765,"529":0.05309545248746872,"530":0.7746924161911011,"531":0.10487858206033707,"532":0.012924485839903355,"533":0.2242017537355423,"534":-0.22127105295658112,"535":-0.2885453999042511,"536":0.9980918169021606,"537":-0.9871976971626282,"538":0.7164410948753357,"539":-0.4242365062236786,"540":-1.0071827173233032,"541":-0.2675822675228119,"542":-0.8333805203437805,"543":-0.8870620131492615,"544":-0.3726600706577301,"545":-0.19548720121383667,"546":-0.011360288597643375,"547":-0.4915493428707123,"548":1.3538388013839722,"549":0.4446719288825989,"550":-0.5163867473602295,"551":-0.23873496055603027,"552":-0.5041928887367249,"553":1.0383182764053345,"554":-0.36993080377578735,"555":-0.026419997215270996,"556":0.721767246723175,"557":0.10244917124509811,"558":-0.1341819316148758,"559":0.2703501582145691,"560":0.6613842844963074,"561":0.6715663075447083,"562":-0.7591915130615234,"563":0.14244814217090607,"564":-0.7377569675445557,"565":0.7108917832374573,"566":0.0893663763999939,"567":0.31198036670684814,"568":-0.07023103535175323,"569":0.3502576947212219,"570":-0.3083413243293762,"571":0.43407851457595825,"572":0.11072102934122086,"573":0.809882402420044,"574":-0.37456706166267395,"575":-1.3804547786712646,"576":1.1359363794326782,"577":-0.2527889013290405,"578":0.164774551987648,"579":-0.6183369755744934,"580":-1.3997174501419067,"581":1.192280650138855,"582":-0.2910751402378082,"583":0.9821028113365173,"584":0.7770132422447205,"585":0.2617497146129608,"586":0.35348474979400635,"587":0.018036598339676857,"588":-0.902588963508606,"589":-0.9682629704475403,"590":0.6365182995796204,"591":0.9408623576164246,"592":0.5983951091766357,"593":-0.12087519466876984,"594":0.6305944323539734,"595":-1.7453231811523438,"596":0.8004602789878845,"597":-0.5622098445892334,"598":0.43674272298812866,"599":1.603424072265625,"600":0.4385777413845062,"601":0.5618447661399841,"602":0.6552838087081909,"603":-0.08239429444074631,"604":-0.07306911796331406,"605":0.9949230551719666,"606":-0.1957509070634842,"607":-0.21417534351348877,"608":-2.231348991394043,"609":-0.4783843457698822,"610":0.352946400642395,"611":-1.273794412612915,"612":1.100098729133606,"613":-1.5409902334213257,"614":0.5151386260986328,"615":2.1362791061401367,"616":0.3252848982810974,"617":-0.006397034041583538,"618":-1.1137120723724365,"619":-0.04332946985960007,"620":-0.6570439338684082,"621":-0.008634716272354126,"622":-0.7056105136871338,"623":1.6321228742599487,"624":0.9261253476142883,"625":-0.7161937952041626,"626":-1.4328774213790894,"627":0.5095011591911316,"628":-0.07342396676540375,"629":-0.045947782695293427,"630":0.1941482275724411,"631":0.016789378598332405,"632":2.104065179824829,"633":-1.2491333484649658,"634":0.33640190958976746,"635":-0.18531733751296997,"636":0.005131799262017012,"637":-0.14078272879123688,"638":0.4467064142227173,"639":-0.596376359462738,"640":-0.8805873990058899,"641":0.03567078337073326,"642":0.05807315185666084,"643":0.016452336683869362,"644":1.9140675067901611,"645":-0.1059684008359909,"646":-0.5260236859321594,"647":-0.8634251952171326,"648":-0.1801428198814392,"649":-0.19072481989860535,"650":0.42127615213394165,"651":-2.0423696041107178,"652":0.6486154198646545,"653":-0.3408127427101135,"654":-1.6717723608016968,"655":-0.9309121370315552,"656":0.15383140742778778,"657":0.03180938959121704,"658":0.578608512878418,"659":0.4035012125968933,"660":0.21405690908432007,"661":-0.19590505957603455,"662":0.6155795454978943,"663":0.07663320749998093,"664":-1.004080057144165,"665":-1.6665712594985962,"666":-1.5737777948379517,"667":0.6618548035621643,"668":0.022920861840248108,"669":-0.7371360659599304,"670":0.0870712623000145,"671":-0.8320059776306152,"672":-0.6396463513374329,"673":0.5216496586799622,"674":-0.9158923029899597,"675":0.8363550901412964,"676":-0.9009177684783936,"677":1.0550150871276855,"678":1.0806373357772827,"679":1.026287317276001,"680":-1.3295282125473022,"681":-0.8137257695198059,"682":-2.0401813983917236,"683":0.33426985144615173,"684":-0.19594638049602509,"685":-0.06411734968423843,"686":-1.169594407081604,"687":0.04585495591163635,"688":-0.1260022222995758,"689":-0.32159286737442017,"690":-2.987562417984009,"691":-0.3182908892631531,"692":1.1158196926116943,"693":-0.29314860701560974,"694":-0.2205023318529129,"695":-0.5813365578651428,"696":2.04504656791687,"697":-2.061643123626709,"698":0.6230133771896362,"699":-0.8864457607269287,"700":1.3546102046966553,"701":-0.6395276188850403,"702":-0.21433188021183014,"703":-0.8840081691741943,"704":-0.258638471364975,"705":-0.4017115831375122,"706":0.38955551385879517,"707":-1.0165057182312012,"708":-0.3775736689567566,"709":0.73465496301651,"710":1.3172539472579956,"711":0.22270016372203827,"712":1.0989371538162231,"713":0.9190613627433777,"714":-0.9590622782707214,"715":-1.0014079809188843,"716":0.4715878963470459,"717":0.33606889843940735,"718":0.4134998917579651,"719":-0.5798132419586182,"720":-1.1145585775375366,"721":0.4699699282646179,"722":0.6776390671730042,"723":2.2962706089019775,"724":0.07938886433839798,"725":0.6655203700065613,"726":0.07128488272428513,"727":-0.13500159978866577,"728":-0.8662516474723816,"729":-0.7061798572540283,"730":-1.1715232133865356,"731":1.1974014043807983,"732":2.428556203842163,"733":0.22119873762130737,"734":0.4860696494579315,"735":0.06148986890912056,"736":-0.18190836906433105,"737":0.01704970933496952,"738":-0.46171560883522034,"739":0.33972400426864624,"740":-0.05847787857055664,"741":0.2001880705356598,"742":0.842563807964325,"743":0.013929268345236778,"744":0.5159974694252014,"745":-0.3423280119895935,"746":-0.963951051235199,"747":0.6314632892608643,"748":-0.7665061950683594,"749":0.4596240818500519,"750":0.33931973576545715,"751":0.5375260710716248,"752":0.5295150876045227,"753":-0.2139359414577484,"754":-0.2033490091562271,"755":-0.3429330289363861,"756":0.18231414258480072,"757":0.6442270874977112,"758":-0.019783157855272293,"759":-0.21253719925880432,"760":-1.248329758644104,"761":0.8759291768074036,"762":-0.71308434009552,"763":-0.5211790204048157,"764":0.10455977916717529,"765":0.2675723731517792,"766":-0.5287062525749207,"767":0.7199434638023376,"768":0.057535383850336075,"769":0.4041489362716675,"770":0.6112558245658875,"771":-0.48669618368148804,"772":0.12183952331542969,"773":0.18537287414073944,"774":0.6537365317344666,"775":-1.0675098896026611,"776":0.8483284115791321,"777":-1.0063880681991577,"778":0.2894887626171112,"779":0.006883127149194479,"780":0.554174542427063,"781":-0.3524378836154938,"782":-0.5602527260780334,"783":-1.147769808769226,"784":-0.2204786092042923,"785":0.5352392196655273,"786":-0.13030382990837097,"787":0.22619757056236267,"788":-0.2987365126609802,"789":0.7417987585067749,"790":1.3844404220581055,"791":0.12970691919326782,"792":0.006285214796662331,"793":-0.6285712122917175,"794":-0.17668011784553528,"795":0.6299782991409302,"796":-0.4137725830078125,"797":-0.5359342694282532,"798":0.5587001442909241,"799":0.2968219816684723,"800":-0.6588623523712158,"801":-0.17262840270996094,"802":0.5965121388435364,"803":-0.6310316920280457,"804":0.20143435895442963,"805":0.26350122690200806,"806":-2.1096785068511963,"807":0.5052363276481628,"808":-0.48764124512672424,"809":-1.1345072984695435,"810":-2.1794328689575195,"811":-0.3982532322406769,"812":-0.3276687562465668,"813":0.41342729330062866,"814":-0.4860072433948517,"815":-0.9560837149620056,"816":0.8374159336090088,"817":0.7829049825668335,"818":1.1143327951431274,"819":-0.3541940748691559,"820":2.096505641937256,"821":0.6182628273963928,"822":-1.076147437095642,"823":-1.071873664855957,"824":-1.040953516960144,"825":1.6240252256393433,"826":-0.36002761125564575,"827":-0.7821888327598572,"828":-0.6312857866287231,"829":-0.665231466293335,"830":1.269099473953247,"831":0.3364265263080597,"832":-2.484541416168213,"833":1.424378514289856,"834":-0.9421882033348083,"835":-0.796707808971405,"836":1.0771464109420776,"837":-1.2582818269729614,"838":1.309313416481018,"839":-0.3098847568035126,"840":0.27729737758636475,"841":0.700689435005188,"842":2.0600457191467285,"843":-1.0714991092681885,"844":0.4982878267765045,"845":0.17925332486629486,"846":0.27129337191581726,"847":-0.27802425622940063,"848":0.5660626292228699,"849":-0.15949474275112152,"850":-0.7770581841468811,"851":0.2340407520532608,"852":-0.6492916941642761,"853":0.6885982751846313,"854":1.9125195741653442,"855":0.020163239911198616,"856":-0.8319799304008484,"857":-1.1098101139068604,"858":-0.6196876168251038,"859":0.00437960447743535,"860":-0.12909504771232605,"861":-2.3328018188476562,"862":0.6119914054870605,"863":-0.09235982596874237,"864":-1.763232946395874,"865":-0.7292408347129822,"866":-0.2354242503643036,"867":0.6400120854377747,"868":0.6790056228637695,"869":0.3838912844657898,"870":-0.15802136063575745,"871":-0.7337793707847595,"872":0.526136577129364,"873":-0.19927169382572174,"874":-0.8901201486587524,"875":3.103533983230591,"876":0.2019639015197754,"877":0.5894193053245544,"878":-0.1282428801059723,"879":-0.7512244582176208,"880":-1.3680943250656128,"881":0.2810031473636627,"882":-2.700099229812622,"883":0.7042770981788635,"884":-0.17937098443508148,"885":1.7649816274642944,"886":1.9886444807052612,"887":-0.34068045020103455,"888":0.18309065699577332,"889":-2.33854079246521,"890":-0.9827110171318054,"891":1.3709176778793335,"892":-1.2686805725097656,"893":-1.8937556743621826,"894":-0.6843319535255432,"895":1.0526931285858154,"896":-0.7816436886787415,"897":-0.5153012871742249,"898":2.6957640647888184,"899":0.7591046094894409,"900":-3.646422863006592,"901":0.45410484075546265,"902":-1.3566396236419678,"903":1.1304434537887573,"904":0.39685162901878357,"905":0.038764484226703644,"906":1.396394968032837,"907":0.17778262495994568,"908":-0.5141347646713257,"909":0.9249081015586853,"910":0.0561901330947876,"911":0.008931035175919533,"912":1.649687647819519,"913":-0.9431126713752747,"914":0.15647846460342407,"915":-0.09385678917169571,"916":-0.17385825514793396,"917":0.06650259345769882,"918":0.18540216982364655,"919":-0.5721950531005859,"920":-0.7595804929733276,"921":-0.029546750709414482,"922":0.13140879571437836,"923":0.25621530413627625,"924":1.4931426048278809,"925":-0.20670880377292633,"926":-0.2911902368068695,"927":-0.7380518913269043,"928":-0.15713609755039215,"929":-0.14871159195899963,"930":0.18769697844982147,"931":-1.528376817703247,"932":0.6030892729759216,"933":0.08544111996889114,"934":-1.3580162525177002,"935":-0.7522854804992676,"936":0.11246265470981598,"937":0.04830989986658096,"938":1.0146089792251587,"939":0.16554898023605347,"940":0.006786159705370665,"941":0.08600885421037674,"942":0.4447985887527466,"943":0.07518326491117477,"944":-0.857058584690094,"945":-0.22241151332855225,"946":0.12569871544837952,"947":0.3017441928386688,"948":0.1585639864206314,"949":2.5906784534454346,"950":0.37000247836112976,"951":-0.4835692048072815,"952":0.2132645696401596,"953":-0.7891880869865417,"954":-0.8812628984451294,"955":-0.14863936603069305,"956":-0.7368680834770203,"957":0.2028113156557083,"958":-2.0858547687530518,"959":1.8053922653198242,"960":-1.069798231124878,"961":0.9993573427200317,"962":0.4912444055080414,"963":-1.4517656564712524,"964":-0.3322519361972809,"965":1.0989384651184082,"966":-0.17605483531951904,"967":0.7304481267929077,"968":-0.3309357166290283,"969":-0.2701360285282135,"970":-0.652647078037262,"971":0.9331140518188477,"972":-1.4715973138809204,"973":0.16737116873264313,"974":0.8552976250648499,"975":0.48771342635154724,"976":-0.6023838520050049,"977":-0.1446346938610077,"978":0.49794313311576843,"979":0.14004361629486084,"980":-0.3907935321331024,"981":-0.28596267104148865,"982":1.3579190969467163,"983":-0.6011654734611511,"984":0.7566787600517273,"985":0.016068708151578903,"986":-0.1432446837425232,"987":-0.09418784081935883,"988":0.4227065145969391,"989":-0.7097846865653992,"990":-0.720468282699585,"991":-0.17306485772132874,"992":-0.040755633264780045,"993":0.06399518251419067,"994":1.1280688047409058,"995":-0.05474762246012688,"996":-0.8389289975166321,"997":-0.8069075345993042,"998":-0.07513383030891418,"999":0.0014367143157869577,"1000":0.23396560549736023,"1001":-1.2996834516525269,"1002":0.4229475259780884,"1003":0.0740514025092125,"1004":-1.1118526458740234,"1005":-0.5871401429176331,"1006":0.2846124768257141,"1007":0.08986236900091171,"1008":1.1478004455566406,"1009":0.20779861509799957,"1010":0.30396169424057007,"1011":0.013166339136660099,"1012":0.31598955392837524,"1013":0.3561769127845764,"1014":-0.7958074808120728,"1015":0.02911549247801304,"1016":-0.35305431485176086,"1017":1.540549635887146,"1018":-1.0332832336425781,"1019":0.860286295413971,"1020":-0.246292382478714,"1021":-0.27986544370651245,"1022":-0.14471733570098877,"1023":0.04653819277882576,"1024":-0.6218166947364807,"1025":-0.7207878232002258,"1026":-0.12813514471054077,"1027":-0.17067548632621765,"1028":0.2836848199367523,"1029":1.2277677059173584,"1030":0.2602536678314209,"1031":-0.6940996050834656,"1032":-1.199538230895996,"1033":-0.014555037021636963,"1034":-0.22898930311203003,"1035":0.6472846865653992,"1036":-1.4586008787155151,"1037":0.40586814284324646,"1038":0.17112639546394348,"1039":-1.220078468322754,"1040":-0.792111337184906,"1041":0.0030193901620805264,"1042":-0.041952945291996,"1043":1.1753135919570923,"1044":0.2118857353925705,"1045":-0.07227402925491333,"1046":0.046325135976076126,"1047":0.5540590882301331,"1048":0.24835000932216644,"1049":-0.8794240355491638,"1050":-0.009823109023272991,"1051":-0.3846980333328247,"1052":1.6044092178344727,"1053":-1.1295685768127441,"1054":0.9887130856513977,"1055":-0.3418048322200775,"1056":-0.16906973719596863,"1057":-0.2107134610414505,"1058":0.2799416482448578,"1059":-0.4848932921886444,"1060":-0.911349356174469,"1061":-0.08170116692781448,"1062":-0.3307746946811676,"1063":0.5764665603637695,"1064":1.3388181924819946,"1065":0.40220826864242554,"1066":-0.8697888851165771,"1067":-1.3937382698059082,"1068":-0.2667604982852936,"1069":-0.07483500987291336,"1070":0.038869310170412064,"1071":-1.6212165355682373,"1072":0.40698689222335815,"1073":-0.12888143956661224,"1074":-1.1650681495666504,"1075":-0.8112706542015076,"1076":-0.18538887798786163,"1077":-0.014811189845204353,"1078":0.9792205095291138,"1079":0.3839000463485718,"1080":0.17130336165428162,"1081":0.0190973412245512,"1082":0.41782882809638977,"1083":0.15527918934822083,"1084":-1.0053542852401733,"1085":0.16126853227615356,"1086":-0.3088890612125397,"1087":1.8353523015975952,"1088":-0.7505212426185608,"1089":0.8792588710784912,"1090":-0.6566250920295715,"1091":0.01976262591779232,"1092":-0.5577355027198792,"1093":0.9312632083892822,"1094":-0.07804866135120392,"1095":-1.0449353456497192,"1096":0.5115206837654114,"1097":-0.29200711846351624,"1098":0.721734344959259,"1099":1.7991735935211182,"1100":0.20640167593955994,"1101":-1.371248722076416,"1102":-1.2888468503952026,"1103":0.006047012750059366,"1104":0.10139760375022888,"1105":-0.5297053456306458,"1106":-1.9500484466552734,"1107":0.2893142104148865,"1108":-0.488567590713501,"1109":-1.339760184288025,"1110":-1.197704553604126,"1111":-0.3838435709476471,"1112":0.3158087432384491,"1113":0.8507347106933594,"1114":0.6597386598587036,"1115":0.2256232649087906,"1116":-0.06606801599264145,"1117":0.5033184289932251,"1118":-0.14866407215595245,"1119":-0.6744133830070496,"1120":0.8367962837219238,"1121":-0.2974834144115448,"1122":1.8361320495605469,"1123":-4.723730564117432,"1124":1.08797025680542,"1125":-0.38939782977104187,"1126":-0.4288817048072815,"1127":-0.292431116104126,"1128":-0.28529495000839233,"1129":1.6752527952194214,"1130":-0.6564109921455383,"1131":0.42138808965682983,"1132":1.9575129747390747,"1133":-0.1797822117805481,"1134":1.9821689128875732,"1135":-1.5471289157867432,"1136":-0.3850589394569397,"1137":0.14571018517017365,"1138":-0.7224514484405518,"1139":-2.479240894317627,"1140":-0.4083680510520935,"1141":-1.1978191137313843,"1142":2.546051263809204,"1143":1.121706247329712,"1144":-2.5462067127227783,"1145":-3.2130160331726074,"1146":1.8908843994140625,"1147":-0.3331986665725708,"1148":-0.8043874502182007,"1149":0.8404420018196106,"1150":-0.9887408018112183,"1151":0.7822561860084534,"1152":1.2553790807724,"1153":0.32692044973373413,"1154":0.4986100196838379,"1155":-1.7853072881698608,"1156":-0.8437862396240234,"1157":1.899688482284546,"1158":0.17504945397377014,"1159":-0.088625967502594,"1160":0.6760629415512085,"1161":-0.6664859652519226,"1162":0.9465529322624207,"1163":-0.7483701705932617,"1164":-1.992479920387268,"1165":-1.0249296426773071,"1166":-1.2647732496261597,"1167":0.2495502382516861,"1168":0.552277147769928,"1169":1.487248420715332,"1170":-0.5217201113700867,"1171":0.43734604120254517,"1172":-1.232362985610962,"1173":0.05359144136309624,"1174":-0.10791986435651779,"1175":-0.9454771280288696,"1176":-1.662819743156433,"1177":0.5554402470588684,"1178":0.2324809581041336,"1179":-1.4434423446655273,"1180":0.035060763359069824,"1181":0.3108101189136505,"1182":0.3971574902534485,"1183":1.3607758283615112,"1184":-0.6164363026618958,"1185":1.0217788219451904,"1186":0.7983660697937012,"1187":0.61832594871521,"1188":0.8737011551856995,"1189":-1.906352162361145,"1190":-0.10306285321712494,"1191":0.015298864804208279,"1192":0.6550029516220093,"1193":0.4270034730434418,"1194":0.9683408737182617,"1195":-0.606419026851654,"1196":0.11425892263650894,"1197":-0.3709496557712555,"1198":0.19491423666477203,"1199":-0.3972790837287903,"1200":-0.08513249456882477,"1201":-0.13437290489673615,"1202":-0.5100145936012268,"1203":-1.2583796977996826,"1204":0.40539732575416565,"1205":0.6645627617835999,"1206":-0.7296276092529297,"1207":-0.14353342354297638,"1208":-0.3836734890937805,"1209":0.583824098110199,"1210":1.4646048545837402,"1211":-0.7098049521446228,"1212":0.11313531547784805,"1213":-0.46403396129608154,"1214":-0.6107370853424072,"1215":-0.3650742769241333,"1216":-0.3264564573764801,"1217":-0.3614642024040222,"1218":1.1355096101760864,"1219":0.9637297987937927,"1220":-0.2692210376262665,"1221":-0.7299033999443054,"1222":-0.34120744466781616,"1223":-0.0028358015697449446,"1224":-0.524979293346405,"1225":0.007888825610280037,"1226":0.0587649866938591,"1227":-0.02135024406015873,"1228":0.051613204181194305,"1229":0.02383384294807911,"1230":-0.051151346415281296,"1231":0.07618119567632675,"1232":-0.03205754980444908,"1233":0.04675532877445221,"1234":-0.06124532222747803,"1235":0.009986634366214275,"1236":0.04424373432993889,"1237":-0.022322239354252815,"1238":0.045901279896497726,"1239":-0.03492407873272896,"1240":-0.07242843508720398,"1241":-0.030626671388745308,"1242":0.013180968351662159,"1243":-0.05231405422091484,"1244":0.013476032763719559,"1245":-0.05932532995939255,"1246":0.0633176863193512,"1247":0.05906384810805321,"1248":-0.0445023849606514,"1249":-0.07104767858982086,"1250":-0.018328195437788963,"1251":0.06159137189388275,"1252":0.029837703332304955,"1253":-0.027935950085520744,"1254":-0.03471021354198456,"1255":0.05930796638131142,"1256":0.02061319351196289,"1257":-0.014510358683764935,"1258":0.0095131890848279,"1259":0.05953684821724892}},"hiddenLayers":[{"inputMatrix":{"rows":20,"columns":35,"weights":{"0":0.24601632356643677,"1":-0.6004488468170166,"2":0.7880309820175171,"3":-0.46762704849243164,"4":0.7001476287841797,"5":-0.44722411036491394,"6":0.21787166595458984,"7":-0.4082750380039215,"8":-0.27671918272972107,"9":-0.14233416318893433,"10":0.47701647877693176,"11":-0.3971889019012451,"12":0.09599381685256958,"13":-0.5026822686195374,"14":-0.2786177694797516,"15":0.1019439846277237,"16":-0.4379494786262512,"17":0.09329458326101303,"18":-0.47885578870773315,"19":0.2568533718585968,"20":0.7043341398239136,"21":-0.75557541847229,"22":0.42341431975364685,"23":0.23353253304958344,"24":-0.8515974879264832,"25":-0.17941206693649292,"26":0.01309845969080925,"27":-0.17800697684288025,"28":0.8780243992805481,"29":0.13904084265232086,"30":-0.6890033483505249,"31":-0.01919977366924286,"32":0.2313019037246704,"33":-0.011311842128634453,"34":-0.1818912774324417,"35":-0.0019340700237080455,"36":-0.8981881141662598,"37":0.6753016114234924,"38":-0.39017218351364136,"39":-0.02359786443412304,"40":-0.386636346578598,"41":0.2562313675880432,"42":-0.28762564063072205,"43":-0.17665410041809082,"44":-0.14206767082214355,"45":-0.09780732542276382,"46":-0.6362912654876709,"47":0.05291164666414261,"48":-0.005109136924147606,"49":-0.22065186500549316,"50":0.5742228627204895,"51":-0.24462923407554626,"52":-0.29702648520469666,"53":0.47924554347991943,"54":0.08122450858354568,"55":0.3840887248516083,"56":-0.5832909941673279,"57":0.24507173895835876,"58":0.6288926601409912,"59":-0.856318473815918,"60":-0.33306220173835754,"61":-0.16302847862243652,"62":0.2809855043888092,"63":0.4401484727859497,"64":0.17400160431861877,"65":0.1268167495727539,"66":-0.4015800654888153,"67":0.7918039560317993,"68":-0.1322418600320816,"69":-0.48972710967063904,"70":0.13414081931114197,"71":-0.41822367906570435,"72":0.8745090365409851,"73":-0.16649344563484192,"74":0.23780810832977295,"75":-0.6229095458984375,"76":0.2806243896484375,"77":-0.7083297967910767,"78":0.060188621282577515,"79":-0.45659080147743225,"80":0.27782630920410156,"81":-0.5097029209136963,"82":-0.018273545429110527,"83":-0.2967319190502167,"84":0.10310928523540497,"85":0.21582818031311035,"86":-0.3604286313056946,"87":-0.24010834097862244,"88":-0.13984079658985138,"89":0.3079494833946228,"90":0.5751090049743652,"91":-0.7446883916854858,"92":0.2819315493106842,"93":0.08032437413930893,"94":-0.8640439510345459,"95":0.05673926696181297,"96":-0.3804430365562439,"97":0.08791095018386841,"98":0.7789156436920166,"99":0.2222955971956253,"100":-0.41416287422180176,"101":-0.018493611365556717,"102":0.12575271725654602,"103":-0.23807276785373688,"104":-0.33844640851020813,"105":0.4382667541503906,"106":0.13532842695713043,"107":0.6573138236999512,"108":-0.494800329208374,"109":0.5140658020973206,"110":-0.2334345579147339,"111":0.02723589539527893,"112":-0.3724558651447296,"113":-0.03297051042318344,"114":-0.40833088755607605,"115":0.11802345514297485,"116":-0.10832960158586502,"117":-0.11245956271886826,"118":-0.23128756880760193,"119":-0.19081416726112366,"120":-0.09253690391778946,"121":0.21893000602722168,"122":-0.026643283665180206,"123":-0.8381457924842834,"124":-0.01831214502453804,"125":-0.0630117729306221,"126":-0.29836806654930115,"127":0.49338752031326294,"128":0.4059498608112335,"129":-0.4811363220214844,"130":0.07370968908071518,"131":0.23729906976222992,"132":-0.7315846085548401,"133":0.8927306532859802,"134":-0.06948830187320709,"135":-0.5385624766349792,"136":-0.015711501240730286,"137":0.6334078311920166,"138":-0.035343751311302185,"139":-0.027840735390782356,"140":-0.5260361433029175,"141":-0.14724205434322357,"142":0.4080660045146942,"143":-0.2140900045633316,"144":-0.4328431487083435,"145":0.00794810801744461,"146":-0.22500693798065186,"147":0.17631292343139648,"148":-0.34026336669921875,"149":-0.07753409445285797,"150":-1.059893250465393,"151":0.01338053960353136,"152":0.40629708766937256,"153":0.49334466457366943,"154":0.150505930185318,"155":-0.1959078460931778,"156":0.20127898454666138,"157":-0.2751484811306,"158":0.7857648134231567,"159":-0.2594473659992218,"160":0.11436775326728821,"161":-0.5678365230560303,"162":0.25801676511764526,"163":0.6564182639122009,"164":-0.37445247173309326,"165":-0.5632385611534119,"166":0.24372507631778717,"167":0.6319225430488586,"168":0.32601019740104675,"169":-0.05161963403224945,"170":0.2944628894329071,"171":0.5648735761642456,"172":0.12351833283901215,"173":0.6236526370048523,"174":-0.7784825563430786,"175":0.46417567133903503,"176":-0.5523241758346558,"177":0.5249589085578918,"178":-0.5291538238525391,"179":-0.07522459328174591,"180":-0.29598528146743774,"181":0.04558223485946655,"182":-0.10897266864776611,"183":-0.05246329680085182,"184":0.1577892303466797,"185":-0.281610369682312,"186":-0.022718628868460655,"187":0.2922784090042114,"188":0.24710991978645325,"189":-0.1006009504199028,"190":0.2007003277540207,"191":0.15352101624011993,"192":0.055377550423145294,"193":0.398325651884079,"194":-0.20548148453235626,"195":0.052841413766145706,"196":-0.43324169516563416,"197":-0.0756634995341301,"198":0.36019715666770935,"199":-0.4409865736961365,"200":-0.19860997796058655,"201":0.03018016926944256,"202":0.14314840734004974,"203":0.07567639648914337,"204":-0.11900544166564941,"205":-0.2762002646923065,"206":-0.0642738863825798,"207":-0.0472257174551487,"208":0.20402668416500092,"209":-0.18727707862854004,"210":0.35413455963134766,"211":-0.01049810741096735,"212":0.18652300536632538,"213":-0.4055127501487732,"214":0.09901682287454605,"215":0.29047441482543945,"216":0.07753060758113861,"217":-0.09368446469306946,"218":0.1318279504776001,"219":0.3124980628490448,"220":-0.3363935351371765,"221":0.25716447830200195,"222":-0.22383460402488708,"223":0.2708510160446167,"224":-0.1485956609249115,"225":-0.3228241801261902,"226":0.13302238285541534,"227":-0.1907469928264618,"228":0.08798004686832428,"229":-0.21423843502998352,"230":-0.053903598338365555,"231":-0.22842423617839813,"232":-0.19040212035179138,"233":0.6176944375038147,"234":-0.23093342781066895,"235":-0.6216200590133667,"236":-0.13735267519950867,"237":0.20915371179580688,"238":0.2754375636577606,"239":-0.08503565937280655,"240":-0.23816154897212982,"241":0.21017028391361237,"242":0.31440064311027527,"243":-0.16388197243213654,"244":-0.11260298639535904,"245":-0.08294253796339035,"246":-0.7643582224845886,"247":0.5559258460998535,"248":-1.198515772819519,"249":-0.347756028175354,"250":0.16430912911891937,"251":-0.6391244530677795,"252":0.7062572240829468,"253":-0.7733389735221863,"254":-0.09730284661054611,"255":-1.0825104713439941,"256":-0.511363685131073,"257":0.5619744062423706,"258":0.2057003527879715,"259":0.21844151616096497,"260":0.20279207825660706,"261":0.0643644779920578,"262":-0.3957730829715729,"263":0.6515464782714844,"264":-0.823448896408081,"265":0.26675182580947876,"266":-0.6687749028205872,"267":0.5491709113121033,"268":0.43816104531288147,"269":-0.6432444453239441,"270":-0.5585883855819702,"271":0.8197972178459167,"272":0.7919732928276062,"273":0.332319974899292,"274":-0.17168568074703217,"275":0.20432299375534058,"276":-0.19180089235305786,"277":0.0763540267944336,"278":0.8143168687820435,"279":-0.5031599998474121,"280":-0.1552209109067917,"281":-0.5440070629119873,"282":0.11863625049591064,"283":-0.8408071398735046,"284":-0.5427661538124084,"285":0.4522237181663513,"286":-0.5521723628044128,"287":0.33533021807670593,"288":-0.614647626876831,"289":-0.026233073323965073,"290":-0.5916680693626404,"291":-0.3528391420841217,"292":0.3434012532234192,"293":0.43301868438720703,"294":0.08485474437475204,"295":0.0015451398212462664,"296":0.13355833292007446,"297":-0.5586106777191162,"298":0.7476751208305359,"299":-0.7549522519111633,"300":-0.16733945906162262,"301":-0.23277539014816284,"302":0.43455687165260315,"303":0.087226502597332,"304":-0.3707859218120575,"305":0.06240586191415787,"306":0.24204181134700775,"307":0.8687511682510376,"308":0.19521507620811462,"309":-0.53516685962677,"310":0.17605619132518768,"311":0.3260209262371063,"312":0.3689654767513275,"313":0.6023154258728027,"314":0.07200030982494354,"315":0.16016028821468353,"316":0.06790407001972198,"317":0.8553164005279541,"318":0.07683032006025314,"319":0.05764291062951088,"320":-0.47354695200920105,"321":0.5715450048446655,"322":-0.430862158536911,"323":0.30516621470451355,"324":-0.379769504070282,"325":-0.11975419521331787,"326":0.030897822231054306,"327":-0.511730968952179,"328":-0.1437632292509079,"329":-0.0059035299345850945,"330":0.5452445149421692,"331":-0.34127748012542725,"332":-0.8779552578926086,"333":-0.218728169798851,"334":0.2748536765575409,"335":0.6845330595970154,"336":-0.9382866024971008,"337":-0.18719376623630524,"338":0.4670766592025757,"339":-0.5949180126190186,"340":-0.5140362977981567,"341":-0.2743079364299774,"342":-0.24138034880161285,"343":1.3727071285247803,"344":0.5117193460464478,"345":0.26269400119781494,"346":-0.3064972460269928,"347":-0.26192766427993774,"348":-0.47148510813713074,"349":-0.4764375686645508,"350":-0.016051672399044037,"351":-0.37070026993751526,"352":0.582611083984375,"353":-0.41065165400505066,"354":0.3046378791332245,"355":0.04061098024249077,"356":-0.10991101711988449,"357":-0.1295834332704544,"358":-0.21741129457950592,"359":0.054738156497478485,"360":-0.19228997826576233,"361":-0.2089575231075287,"362":0.1768045723438263,"363":-0.3424983024597168,"364":0.3033287823200226,"365":0.021618416532874107,"366":-0.15006020665168762,"367":-0.2803401052951813,"368":0.14252352714538574,"369":-0.31302058696746826,"370":0.4984944760799408,"371":-0.5792528986930847,"372":0.46120592951774597,"373":0.36216211318969727,"374":-0.645159900188446,"375":-0.5388578772544861,"376":0.2797868847846985,"377":0.07493177056312561,"378":0.6955001354217529,"379":0.00852311309427023,"380":0.006903268396854401,"381":-0.18155774474143982,"382":0.387159526348114,"383":0.21638242900371552,"384":-0.3903287351131439,"385":-0.0005894300993531942,"386":-0.7856462597846985,"387":0.616751492023468,"388":-0.3277369439601898,"389":0.6823387742042542,"390":-0.3596259355545044,"391":-0.04259150102734566,"392":-0.059930965304374695,"393":-0.5522647500038147,"394":0.13321350514888763,"395":0.41465553641319275,"396":-0.4242968261241913,"397":0.754587709903717,"398":-0.5709136128425598,"399":0.4274503290653229,"400":0.24241356551647186,"401":-0.5727497935295105,"402":0.3574765920639038,"403":-0.24748119711875916,"404":0.11673609912395477,"405":0.2593660354614258,"406":-0.38934949040412903,"407":0.6747793555259705,"408":-0.31354230642318726,"409":-0.8353734016418457,"410":0.11296655237674713,"411":0.25283679366111755,"412":-0.23916348814964294,"413":0.07927818596363068,"414":0.369770884513855,"415":-0.6037564277648926,"416":0.0006512867985293269,"417":0.16603967547416687,"418":0.4450281262397766,"419":-0.2714095413684845,"420":0.1470719873905182,"421":-0.2767377197742462,"422":0.7817083597183228,"423":0.02638215757906437,"424":0.324271559715271,"425":-0.44289326667785645,"426":0.10597272217273712,"427":-0.7190830707550049,"428":0.1406627744436264,"429":-0.045967426151037216,"430":0.07075076550245285,"431":0.2911689579486847,"432":0.1612570732831955,"433":-0.06613295525312424,"434":-0.043147336691617966,"435":-0.37805917859077454,"436":-0.0030504120513796806,"437":-0.07839740812778473,"438":-0.2632560133934021,"439":0.056471578776836395,"440":0.2734113335609436,"441":-0.6542332172393799,"442":0.09268797934055328,"443":0.5366839170455933,"444":-0.6110509037971497,"445":-0.4506624639034271,"446":-0.2594428062438965,"447":-0.2533046305179596,"448":0.82501220703125,"449":0.14123916625976562,"450":-0.30255377292633057,"451":0.33183741569519043,"452":-0.02417617477476597,"453":0.014991186559200287,"454":-0.5012899041175842,"455":0.0012971797259524465,"456":0.43676334619522095,"457":0.23701222240924835,"458":0.8483289480209351,"459":0.11228561401367188,"460":-0.2498459368944168,"461":0.685958743095398,"462":-0.7552440762519836,"463":0.2724744379520416,"464":-0.5965834259986877,"465":0.6689675450325012,"466":-0.14946721494197845,"467":-1.1899242401123047,"468":-0.41641125082969666,"469":-0.2370714694261551,"470":0.21055394411087036,"471":-0.4905242323875427,"472":-0.16995252668857574,"473":-0.306551069021225,"474":0.7626562714576721,"475":0.8189579844474792,"476":-0.24599778652191162,"477":-0.356580913066864,"478":-0.12419872730970383,"479":0.08533144742250443,"480":0.5147053599357605,"481":-0.8777585029602051,"482":0.04971686378121376,"483":1.827524185180664,"484":0.4738803803920746,"485":0.006926725618541241,"486":-0.5492830872535706,"487":-0.07777367532253265,"488":-0.7823933959007263,"489":-0.08896960318088531,"490":-0.48902183771133423,"491":0.25831374526023865,"492":0.35634154081344604,"493":0.020177463069558144,"494":0.013934752903878689,"495":0.17607657611370087,"496":-0.03092294931411743,"497":-0.03478182852268219,"498":0.21442638337612152,"499":-0.08874694257974625,"500":-0.42298778891563416,"501":0.21520854532718658,"502":-0.29407575726509094,"503":0.03314591199159622,"504":0.4253668785095215,"505":-0.34942588210105896,"506":0.014242395758628845,"507":-0.6622218489646912,"508":-0.036481913179159164,"509":-0.13955852389335632,"510":0.29698047041893005,"511":-0.4715332090854645,"512":-0.04529409110546112,"513":0.3503503203392029,"514":-0.07424234598875046,"515":-0.7036237120628357,"516":-0.04196877405047417,"517":0.12762156128883362,"518":0.7164604067802429,"519":0.021153967827558517,"520":0.4487757086753845,"521":0.2350238561630249,"522":-0.04230136051774025,"523":-0.03073756769299507,"524":-0.4904566705226898,"525":-0.0011485039722174406,"526":-0.6026432514190674,"527":0.8615420460700989,"528":-0.47634828090667725,"529":0.837981104850769,"530":-0.25345578789711,"531":-0.16796205937862396,"532":-0.04810532182455063,"533":-0.5101970434188843,"534":-0.27430689334869385,"535":0.02214529551565647,"536":-0.23666533827781677,"537":0.3664024770259857,"538":-0.5197945237159729,"539":0.4652174711227417,"540":-0.20391473174095154,"541":-0.2125174105167389,"542":0.17353792488574982,"543":-0.08856051415205002,"544":-0.19061139225959778,"545":0.46323129534721375,"546":-0.8672892451286316,"547":0.629875898361206,"548":0.13552474975585938,"549":-1.0565332174301147,"550":-0.4935600161552429,"551":0.39115697145462036,"552":-0.03781941160559654,"553":0.29271236062049866,"554":0.3951268494129181,"555":-0.5029550790786743,"556":0.0568045936524868,"557":0.4177466928958893,"558":0.5865563750267029,"559":-0.40894579887390137,"560":0.39577677845954895,"561":-0.07678531110286713,"562":0.6914884448051453,"563":-0.332295686006546,"564":0.8243554830551147,"565":-0.47231289744377136,"566":0.34051617980003357,"567":-0.2531850039958954,"568":-0.4610568583011627,"569":-0.2339840680360794,"570":0.4422233998775482,"571":-0.15626630187034607,"572":-0.18648101389408112,"573":-0.6089549660682678,"574":-0.32251089811325073,"575":0.07075430452823639,"576":0.014227911829948425,"577":0.32245302200317383,"578":-0.8017940521240234,"579":0.22646009922027588,"580":0.2510985732078552,"581":-0.509094774723053,"582":0.6104399561882019,"583":0.3819592595100403,"584":-0.82126784324646,"585":0.24466688930988312,"586":0.011558783240616322,"587":-0.7830936312675476,"588":1.2766892910003662,"589":0.20084916055202484,"590":-0.4820551574230194,"591":-0.3307439386844635,"592":0.7414146661758423,"593":-0.014501352794468403,"594":-0.1615556925535202,"595":0.1322079449892044,"596":-0.39597687125205994,"597":0.6947222352027893,"598":-0.43955886363983154,"599":-0.2628825306892395,"600":-0.3145223557949066,"601":-0.04616062715649605,"602":-0.3383975028991699,"603":0.03981911018490791,"604":-0.22105389833450317,"605":-0.48064082860946655,"606":-0.2082185298204422,"607":0.055331598967313766,"608":0.14890392124652863,"609":0.0011650185333564878,"610":0.4968318045139313,"611":-0.13077488541603088,"612":-0.48171037435531616,"613":0.4596426784992218,"614":0.057565636932849884,"615":0.3009101152420044,"616":-0.7163462042808533,"617":0.1856282651424408,"618":0.5215027928352356,"619":-0.45637261867523193,"620":-0.4507685601711273,"621":-0.10859540104866028,"622":0.20783984661102295,"623":0.47587043046951294,"624":0.22255687415599823,"625":0.09009715169668198,"626":-0.22676365077495575,"627":0.2904493808746338,"628":-0.08197832852602005,"629":-0.20961050689220428,"630":-0.32500413060188293,"631":-0.583277702331543,"632":0.397634357213974,"633":-1.040906310081482,"634":-0.3648096024990082,"635":0.22729775309562683,"636":-0.865402102470398,"637":0.47247686982154846,"638":-0.40568119287490845,"639":-0.41859930753707886,"640":-1.327919840812683,"641":-0.35872897505760193,"642":0.7862142324447632,"643":0.4036558270454407,"644":0.6554940342903137,"645":0.0818958729505539,"646":0.31622445583343506,"647":-0.5721753835678101,"648":0.6852430105209351,"649":-0.8452879190444946,"650":-0.008798074908554554,"651":-0.4278953969478607,"652":0.3018028438091278,"653":0.1151094138622284,"654":-0.3646811842918396,"655":-0.2413070797920227,"656":0.5447391271591187,"657":0.5198922753334045,"658":0.12417849153280258,"659":-0.4088696539402008,"660":0.29910561442375183,"661":0.2267063409090042,"662":0.05884853005409241,"663":0.7852266430854797,"664":-0.4195377826690674,"665":0.02360723912715912,"666":0.46756166219711304,"667":0.385547399520874,"668":0.469285786151886,"669":0.14428991079330444,"670":-0.02748364582657814,"671":0.35497915744781494,"672":-0.5097196102142334,"673":0.4993949234485626,"674":-0.4197942614555359,"675":-0.08993490785360336,"676":-0.10562922060489655,"677":-0.8410353064537048,"678":-0.371978759765625,"679":-0.09816154092550278,"680":0.13036203384399414,"681":-0.016353456303477287,"682":-0.23825021088123322,"683":-0.09130547195672989,"684":0.2404910773038864,"685":0.6149967312812805,"686":-0.40419670939445496,"687":-0.004145276267081499,"688":0.1114618331193924,"689":-0.03889999911189079,"690":-0.41218212246894836,"691":-0.26173660159111023,"692":-0.1049470379948616,"693":0.9916484951972961,"694":0.541510283946991,"695":0.44907906651496887,"696":-0.5392509698867798,"697":-0.10302849113941193,"698":-0.5919650197029114,"699":-0.1622893214225769}},"inputHidden":{"rows":20,"columns":20,"weights":{"0":0.2702287435531616,"1":-0.6277331113815308,"2":-0.5744425058364868,"3":0.5994542241096497,"4":0.4001290500164032,"5":-1.0216712951660156,"6":0.6711915135383606,"7":0.48376262187957764,"8":0.8421958684921265,"9":0.034838635474443436,"10":-0.32409730553627014,"11":-0.5405901670455933,"12":0.25401633977890015,"13":0.2918929159641266,"14":-0.25007158517837524,"15":-0.16924938559532166,"16":-0.963671863079071,"17":-0.5182346701622009,"18":-0.709406852722168,"19":-0.2756078541278839,"20":0.417577862739563,"21":-0.4450813829898834,"22":-0.27081891894340515,"23":0.9637212753295898,"24":0.9688249826431274,"25":-0.5141019821166992,"26":0.18609625101089478,"27":0.3777035176753998,"28":0.19813556969165802,"29":0.23496665060520172,"30":-0.18116351962089539,"31":-0.7477778196334839,"32":0.2580687999725342,"33":0.7767317295074463,"34":0.1206679567694664,"35":0.3115483522415161,"36":-0.752004861831665,"37":-0.49440762400627136,"38":-0.24953699111938477,"39":-0.5809924602508545,"40":0.12787771224975586,"41":-0.47998204827308655,"42":-1.066027283668518,"43":0.7476528882980347,"44":0.5286730527877808,"45":-0.19165261089801788,"46":0.06062597408890724,"47":0.1635013371706009,"48":-0.12521928548812866,"49":0.1857556700706482,"50":0.5773456692695618,"51":-0.2628202438354492,"52":-0.38368019461631775,"53":0.6156162619590759,"54":0.03804147243499756,"55":0.08525776863098145,"56":-0.7331177592277527,"57":-0.0930773913860321,"58":0.13177882134914398,"59":0.15034490823745728,"60":-0.34483838081359863,"61":-0.7166136503219604,"62":0.346122682094574,"63":-0.25598323345184326,"64":0.0653713122010231,"65":-0.7365545630455017,"66":0.8150261044502258,"67":0.4648306965827942,"68":0.43946602940559387,"69":-0.37864866852760315,"70":-1.115851640701294,"71":-0.4785224497318268,"72":0.7499338388442993,"73":-0.3818654417991638,"74":-0.7041175365447998,"75":0.4516075849533081,"76":-0.28094133734703064,"77":-0.8187888264656067,"78":-0.21260833740234375,"79":0.293984055519104,"80":0.3982856571674347,"81":-0.08446961641311646,"82":-0.7701365351676941,"83":0.7451772093772888,"84":-1.0459094047546387,"85":0.2037605345249176,"86":-0.2523552477359772,"87":-0.29761311411857605,"88":-0.5553679466247559,"89":0.8066696524620056,"90":0.24430234730243683,"91":-0.08870801329612732,"92":-0.3987698256969452,"93":1.10260808467865,"94":0.7070581912994385,"95":0.6822352409362793,"96":-0.6219460964202881,"97":0.7330561280250549,"98":0.28762564063072205,"99":-0.9919071793556213,"100":-0.09329015016555786,"101":-0.4248970150947571,"102":-0.09813961386680603,"103":1.1034070253372192,"104":0.4171883165836334,"105":-0.2787080705165863,"106":0.0351836271584034,"107":-0.0045745959505438805,"108":-0.20416785776615143,"109":0.16589513421058655,"110":0.19739200174808502,"111":-0.6800744533538818,"112":0.6965026259422302,"113":0.5575292706489563,"114":0.13037917017936707,"115":0.613160252571106,"116":-1.0679590702056885,"117":-0.07341676950454712,"118":0.03961346298456192,"119":-1.0586515665054321,"120":0.5478704571723938,"121":-0.9639633893966675,"122":-0.22541841864585876,"123":0.9680066704750061,"124":0.46363839507102966,"125":-0.8323424458503723,"126":0.37804165482521057,"127":0.6724975109100342,"128":0.6826934218406677,"129":-0.0911591649055481,"130":-0.48269182443618774,"131":-0.44095784425735474,"132":0.6862538456916809,"133":0.5762290358543396,"134":-0.2755897045135498,"135":1.1134566068649292,"136":-1.032990574836731,"137":-0.5111936330795288,"138":-0.5456909537315369,"139":-0.43152284622192383,"140":0.16181421279907227,"141":-0.14058847725391388,"142":-0.9933491349220276,"143":0.9574636816978455,"144":-0.03224434703588486,"145":-0.17981630563735962,"146":0.3418845236301422,"147":0.08822402358055115,"148":-0.24238356947898865,"149":0.44574955105781555,"150":-0.09247951954603195,"151":-0.4043691158294678,"152":0.24430561065673828,"153":0.6189236640930176,"154":-0.10235466063022614,"155":0.8126693367958069,"156":-0.6261069774627686,"157":-0.12330220639705658,"158":-0.0956464633345604,"159":-0.5383263230323792,"160":-0.007507361005991697,"161":-0.9031649231910706,"162":-0.8989179730415344,"163":0.7620182633399963,"164":0.938115656375885,"165":-1.0750504732131958,"166":0.8520305156707764,"167":0.11779894679784775,"168":-0.06997788697481155,"169":0.439235121011734,"170":-0.5988076329231262,"171":-0.7041653990745544,"172":0.09940202534198761,"173":0.7407019138336182,"174":0.32712844014167786,"175":0.42036956548690796,"176":-0.9054127335548401,"177":-0.5842567086219788,"178":0.30281540751457214,"179":-0.644853949546814,"180":0.029099350795149803,"181":-0.4874148964881897,"182":-0.5146041512489319,"183":0.8424416780471802,"184":0.4414193630218506,"185":-0.2713801860809326,"186":0.43553978204727173,"187":-0.005995334126055241,"188":-0.3056078255176544,"189":-0.20392923057079315,"190":0.47127342224121094,"191":-0.1254933476448059,"192":0.4029080867767334,"193":-0.3129461407661438,"194":-0.2912900745868683,"195":0.14457467198371887,"196":-0.6795702576637268,"197":-0.3691992163658142,"198":0.1266278773546219,"199":0.3649236857891083,"200":0.7377178072929382,"201":-0.6875494718551636,"202":-1.0286448001861572,"203":0.8220600485801697,"204":0.5777780413627625,"205":-0.5414457321166992,"206":0.5018913745880127,"207":0.66754150390625,"208":0.03139195218682289,"209":0.17242629826068878,"210":-0.138939768075943,"211":-0.3445042371749878,"212":0.06482035666704178,"213":0.7752293944358826,"214":-0.19783471524715424,"215":0.641192615032196,"216":-0.8245384097099304,"217":-0.5689795017242432,"218":-0.2837907373905182,"219":-0.44147050380706787,"220":0.4000883996486664,"221":0.06600077450275421,"222":0.2707155644893646,"223":1.171481966972351,"224":-0.14518392086029053,"225":-0.18311519920825958,"226":0.06941720098257065,"227":-0.09783007204532623,"228":0.0026801968924701214,"229":-0.23436430096626282,"230":0.04302842542529106,"231":0.17402803897857666,"232":0.43273162841796875,"233":0.7631145715713501,"234":-0.2952643632888794,"235":1.2657116651535034,"236":-0.608864426612854,"237":-0.43718576431274414,"238":0.12059156596660614,"239":-0.3554302155971527,"240":-0.11193951219320297,"241":-0.3738958537578583,"242":0.630483090877533,"243":0.5946284532546997,"244":0.24105586111545563,"245":-0.4293251931667328,"246":0.3893415033817291,"247":0.4249958097934723,"248":0.3231043815612793,"249":-0.5958767533302307,"250":-0.24130645394325256,"251":-0.3006310760974884,"252":0.8676749467849731,"253":0.20990964770317078,"254":-0.5998152494430542,"255":0.8274052739143372,"256":-0.5320103168487549,"257":-0.5735405087471008,"258":-0.5352261066436768,"259":0.18507447838783264,"260":0.12990698218345642,"261":-0.3809862434864044,"262":-0.16079218685626984,"263":0.6873392462730408,"264":-0.18523529171943665,"265":0.013837975449860096,"266":-0.06287061423063278,"267":0.18827134370803833,"268":0.13548555970191956,"269":-0.23168611526489258,"270":-0.038051530718803406,"271":-0.2627391219139099,"272":0.3544519245624542,"273":-0.3698047697544098,"274":-0.38897353410720825,"275":0.19415026903152466,"276":-0.7174133658409119,"277":-0.206118643283844,"278":-0.2567014992237091,"279":0.5657352805137634,"280":0.8531795740127563,"281":-0.7443768978118896,"282":-0.647553026676178,"283":0.7401445508003235,"284":0.5983778834342957,"285":-0.708681046962738,"286":0.4059753119945526,"287":0.6191494464874268,"288":0.6152530312538147,"289":0.253021240234375,"290":-0.11818160861730576,"291":-0.17717348039150238,"292":0.35709595680236816,"293":0.422197163105011,"294":-0.22060321271419525,"295":0.7489771246910095,"296":-0.8899722695350647,"297":-0.7734971642494202,"298":-0.43091580271720886,"299":-0.3966417610645294,"300":-0.09163932502269745,"301":0.03145163133740425,"302":-0.2158317267894745,"303":0.6544203162193298,"304":-0.022455506026744843,"305":-0.37730133533477783,"306":0.004344930872321129,"307":0.5174822211265564,"308":0.34414589405059814,"309":0.16224440932273865,"310":0.11863735318183899,"311":-0.36995449662208557,"312":0.2912972569465637,"313":0.12623457610607147,"314":0.4180331528186798,"315":-0.4970397353172302,"316":-0.8227056264877319,"317":0.1288425177335739,"318":-0.551398754119873,"319":-0.2862760126590729,"320":-0.16786307096481323,"321":-0.472964882850647,"322":0.16246145963668823,"323":0.32187619805336,"324":-0.1609342396259308,"325":-0.551859974861145,"326":0.30669283866882324,"327":0.6292142868041992,"328":0.4141925573348999,"329":-0.158145010471344,"330":-0.7280794978141785,"331":-0.6709010601043701,"332":0.8105093836784363,"333":0.2021840214729309,"334":-0.443004846572876,"335":0.23430289328098297,"336":-0.6307481527328491,"337":-0.37217411398887634,"338":-0.39855989813804626,"339":0.06961122900247574,"340":-0.258341908454895,"341":-0.13545925915241241,"342":0.3923526406288147,"343":1.214371919631958,"344":0.2818226218223572,"345":-0.033009741455316544,"346":-0.15377314388751984,"347":-0.04835346341133118,"348":-0.1617065817117691,"349":0.19971872866153717,"350":0.18855156004428864,"351":-0.47613972425460815,"352":0.09282469749450684,"353":0.3336637616157532,"354":0.18513934314250946,"355":0.3850984275341034,"356":-1.1233268976211548,"357":-0.0789639875292778,"358":-0.08774887025356293,"359":-1.0047221183776855,"360":-0.06656374782323837,"361":-0.2348332703113556,"362":-0.8107847571372986,"363":0.7329038977622986,"364":-0.1369117945432663,"365":-0.07036615908145905,"366":0.2203707993030548,"367":0.04128560051321983,"368":-0.37726590037345886,"369":0.5068008899688721,"370":-0.14266683161258698,"371":-0.29881295561790466,"372":-0.1544809341430664,"373":0.9467817544937134,"374":0.2387876808643341,"375":1.0102894306182861,"376":-0.5546598434448242,"377":-0.14121223986148834,"378":0.19470465183258057,"379":-0.9008492231369019,"380":0.6779153347015381,"381":-0.7170256972312927,"382":-0.405682772397995,"383":0.66655033826828,"384":-0.15345823764801025,"385":-0.2957921624183655,"386":0.6043969392776489,"387":0.20052097737789154,"388":0.2670969069004059,"389":-0.38817885518074036,"390":-0.2547934949398041,"391":-0.24342261254787445,"392":0.41243985295295715,"393":-0.6085317730903625,"394":-0.37035900354385376,"395":0.8843753337860107,"396":-0.8092836737632751,"397":-0.4285643994808197,"398":-0.2328280657529831,"399":0.39734506607055664}},"inputBias":{"rows":20,"columns":1,"weights":{"0":0.4083319306373596,"1":0.6317641139030457,"2":0.3333152234554291,"3":0.3288913369178772,"4":0.3725588917732239,"5":0.5385071635246277,"6":0.14218272268772125,"7":0.34385985136032104,"8":0.21099738776683807,"9":-0.0803396925330162,"10":0.15997518599033356,"11":0.4796299636363983,"12":0.19287274777889252,"13":0.5447663068771362,"14":-0.26439815759658813,"15":0.5079672932624817,"16":0.6279944777488708,"17":0.5006534457206726,"18":0.4885621964931488,"19":0.30005577206611633}},"forgetMatrix":{"rows":20,"columns":35,"weights":{"0":0.1447305530309677,"1":-0.06286332756280899,"2":-0.2026856243610382,"3":0.40833771228790283,"4":-0.7891747951507568,"5":-0.3018864691257477,"6":0.14180152118206024,"7":-0.046432752162218094,"8":0.4683023989200592,"9":0.14123471081256866,"10":-0.571279764175415,"11":0.1695694774389267,"12":-0.060261908918619156,"13":0.4672766625881195,"14":-0.1910938173532486,"15":0.4991321265697479,"16":0.1764361411333084,"17":-0.0958508849143982,"18":0.32903143763542175,"19":0.3051622211933136,"20":-0.3989938795566559,"21":0.22726593911647797,"22":-0.514990508556366,"23":-0.06741824746131897,"24":0.17102095484733582,"25":0.17439667880535126,"26":-0.3179812431335449,"27":-0.075927734375,"28":-0.6502741575241089,"29":0.039934191852808,"30":0.47085222601890564,"31":-0.22106607258319855,"32":-0.4070291221141815,"33":-0.4536280632019043,"34":-0.16917848587036133,"35":-0.02210523560643196,"36":0.48762309551239014,"37":-0.7857286334037781,"38":0.404003381729126,"39":-0.3030700087547302,"40":0.14827565848827362,"41":-0.22858549654483795,"42":0.19230884313583374,"43":0.21040119230747223,"44":0.10488344728946686,"45":0.39799582958221436,"46":0.1548108458518982,"47":0.09815197438001633,"48":0.2370484471321106,"49":0.03178594633936882,"50":-0.6089656949043274,"51":0.3004237413406372,"52":0.1267612874507904,"53":-0.3009068965911865,"54":-0.12414686381816864,"55":-0.2929801046848297,"56":0.4481267035007477,"57":-0.20172740519046783,"58":-0.3938681483268738,"59":0.8908976912498474,"60":0.13333559036254883,"61":0.045767541974782944,"62":0.05857851356267929,"63":-0.09103652089834213,"64":-0.21267683804035187,"65":-0.03798544779419899,"66":0.27622005343437195,"67":-0.6470792293548584,"68":0.13903209567070007,"69":0.28281524777412415,"70":0.22017624974250793,"71":-0.19491972029209137,"72":-0.784223735332489,"73":-0.0008448076550848782,"74":-0.21126645803451538,"75":-0.14352349936962128,"76":0.4095984399318695,"77":0.3440432846546173,"78":-0.12586717307567596,"79":0.5713946223258972,"80":0.22176028788089752,"81":-0.465548038482666,"82":0.3375370502471924,"83":-0.060046419501304626,"84":-0.471758097410202,"85":0.46931159496307373,"86":0.3563387989997864,"87":0.5028596520423889,"88":0.10322453081607819,"89":0.3456334173679352,"90":-0.0729578509926796,"91":0.9563719630241394,"92":0.2594362795352936,"93":-0.1149955689907074,"94":0.3454442024230957,"95":0.22840264439582825,"96":0.4907698929309845,"97":-0.3718363344669342,"98":-1.1061979532241821,"99":-0.1424425095319748,"100":0.3220910429954529,"101":-0.3746774196624756,"102":0.5891108512878418,"103":-0.38719621300697327,"104":0.555220365524292,"105":-0.16146430373191833,"106":0.44116854667663574,"107":-0.6936237812042236,"108":0.2706138491630554,"109":-0.07694988697767258,"110":0.2857137620449066,"111":0.23753389716148376,"112":0.44553911685943604,"113":0.5949170589447021,"114":0.15750731527805328,"115":0.36905980110168457,"116":0.566602349281311,"117":-0.14466826617717743,"118":0.4160982668399811,"119":-0.12318523228168488,"120":-0.30876433849334717,"121":-0.3369145095348358,"122":-0.3489671051502228,"123":-0.4349312484264374,"124":0.11108574271202087,"125":-0.18223761022090912,"126":0.4327883720397949,"127":-0.5706260204315186,"128":0.021429570391774178,"129":0.6296781897544861,"130":-0.49036645889282227,"131":-0.014892110601067543,"132":-0.1364806741476059,"133":-0.6752054691314697,"134":-0.15095274150371552,"135":0.024456506595015526,"136":0.18595145642757416,"137":-0.5497222542762756,"138":-0.28699225187301636,"139":0.1955886036157608,"140":0.21576830744743347,"141":0.18235155940055847,"142":0.21076378226280212,"143":-0.3145134150981903,"144":-0.02692919224500656,"145":0.07041702419519424,"146":0.03128577768802643,"147":0.4127744436264038,"148":0.3087765872478485,"149":0.3763871192932129,"150":0.21343788504600525,"151":0.2723955512046814,"152":0.04755097255110741,"153":0.26772770285606384,"154":0.15378054976463318,"155":-0.03431252762675285,"156":-0.34908050298690796,"157":-0.4435327351093292,"158":-0.181105837225914,"159":-0.2657378613948822,"160":-0.08176258951425552,"161":-0.17696458101272583,"162":-0.24249565601348877,"163":-0.12921813130378723,"164":-0.10979626327753067,"165":-0.2121422290802002,"166":0.2073391079902649,"167":0.17922839522361755,"168":-0.4977315366268158,"169":-0.2120065838098526,"170":-0.2244860678911209,"171":0.04612118378281593,"172":-0.1978190690279007,"173":-0.05231732502579689,"174":-0.12405478209257126,"175":0.315225750207901,"176":-0.3064546585083008,"177":0.020686840638518333,"178":-0.17124639451503754,"179":0.03340068832039833,"180":-0.1102379709482193,"181":-0.11890102177858353,"182":0.0893014669418335,"183":0.021949581801891327,"184":0.11070436239242554,"185":0.22061824798583984,"186":0.3927918076515198,"187":0.33103349804878235,"188":0.3071206212043762,"189":-0.02055647037923336,"190":-0.38577622175216675,"191":0.44091057777404785,"192":0.1374206691980362,"193":-0.24836529791355133,"194":-0.08046381175518036,"195":-0.5236293077468872,"196":0.09945369511842728,"197":-0.13502377271652222,"198":-0.07353750616312027,"199":0.11604077368974686,"200":0.058389898389577866,"201":0.17159301042556763,"202":-0.25935831665992737,"203":-0.682696521282196,"204":-0.4176029562950134,"205":-0.29204440116882324,"206":0.6320871710777283,"207":0.06272374838590622,"208":0.10687924176454544,"209":0.23941831290721893,"210":-0.22111165523529053,"211":-0.5370995998382568,"212":0.17879514396190643,"213":-0.4744831621646881,"214":-0.10574930161237717,"215":0.45354148745536804,"216":-0.41971784830093384,"217":1.3419597148895264,"218":-0.37895649671554565,"219":-0.2058097869157791,"220":-0.003370551858097315,"221":-0.323175847530365,"222":0.6130695939064026,"223":0.45158275961875916,"224":0.13376861810684204,"225":-0.28447890281677246,"226":0.3092915117740631,"227":-0.2972344756126404,"228":0.32777878642082214,"229":-0.38753095269203186,"230":-0.5745031833648682,"231":-0.12424764037132263,"232":0.1901407241821289,"233":0.40499696135520935,"234":-0.18322496116161346,"235":-0.3650599718093872,"236":0.8787822127342224,"237":0.26517894864082336,"238":-0.8071553111076355,"239":-0.5074770450592041,"240":0.1584363430738449,"241":0.42145031690597534,"242":0.4813207685947418,"243":0.4147091507911682,"244":-0.16587217152118683,"245":-0.18509727716445923,"246":0.013648537918925285,"247":-0.26886725425720215,"248":0.24696743488311768,"249":-0.3680480718612671,"250":0.04002733528614044,"251":0.3907656967639923,"252":-0.2824522852897644,"253":0.313605397939682,"254":0.12971821427345276,"255":0.1033821776509285,"256":0.03346322849392891,"257":-0.032109688967466354,"258":0.004525454714894295,"259":-0.08947925269603729,"260":-0.4542045295238495,"261":-0.049592822790145874,"262":0.06649147719144821,"263":-0.10544737428426743,"264":0.2273384928703308,"265":-0.26898008584976196,"266":0.057391997426748276,"267":0.13358591496944427,"268":0.017651161178946495,"269":0.3020437955856323,"270":-0.31059807538986206,"271":-0.309882253408432,"272":0.23702970147132874,"273":-0.15768536925315857,"274":-0.06342493742704391,"275":0.2634062170982361,"276":-0.14102812111377716,"277":-0.01428498700261116,"278":-0.3670394718647003,"279":0.12047562748193741,"280":0.16753578186035156,"281":-0.6837201714515686,"282":0.5194398164749146,"283":-0.04558800533413887,"284":-0.1612015813589096,"285":-1.0515706539154053,"286":-0.04337828978896141,"287":-0.6563118100166321,"288":0.2306244969367981,"289":0.030934136360883713,"290":-0.17048518359661102,"291":0.3380942642688751,"292":0.04125538095831871,"293":-0.030814429745078087,"294":-0.09987524151802063,"295":0.4914776384830475,"296":0.002297963248565793,"297":0.515688419342041,"298":-0.049506306648254395,"299":0.9087042808532715,"300":-0.054270580410957336,"301":-0.6692212224006653,"302":-0.04369388893246651,"303":-0.2290651947259903,"304":-0.4503806531429291,"305":0.08955160528421402,"306":-0.5306248664855957,"307":-0.48345884680747986,"308":0.3019484877586365,"309":0.3471195101737976,"310":-0.0905722975730896,"311":-0.3575356900691986,"312":-0.4320802092552185,"313":0.01842826046049595,"314":-0.17936789989471436,"315":0.5100927352905273,"316":-0.303693562746048,"317":-0.730015754699707,"318":-0.47992852330207825,"319":-0.03089342825114727,"320":0.13250036537647247,"321":-0.3562144339084625,"322":0.4355962872505188,"323":-0.47507089376449585,"324":0.6548097729682922,"325":0.43124234676361084,"326":-0.12732554972171783,"327":0.5924762487411499,"328":0.32845374941825867,"329":-0.240119069814682,"330":-0.2062046229839325,"331":0.643022894859314,"332":0.3817714750766754,"333":-0.13530249893665314,"334":-0.48508501052856445,"335":-0.7347043752670288,"336":0.8452239036560059,"337":-0.06291374564170837,"338":-0.020767400041222572,"339":0.5728517770767212,"340":0.41493967175483704,"341":0.521979570388794,"342":-0.25796449184417725,"343":-0.9236443042755127,"344":-0.5191428661346436,"345":-0.48180514574050903,"346":0.502782940864563,"347":0.36279070377349854,"348":0.31969916820526123,"349":0.6702568531036377,"350":-0.4629661738872528,"351":-0.24171976745128632,"352":-0.3019028902053833,"353":0.2929731011390686,"354":-0.5167810320854187,"355":0.1866310089826584,"356":0.1961405873298645,"357":0.11471131443977356,"358":-0.1493561863899231,"359":-0.22799035906791687,"360":-0.035730231553316116,"361":-0.555874764919281,"362":-0.297643780708313,"363":0.2931247055530548,"364":-0.13758927583694458,"365":-0.05344581604003906,"366":0.4053092896938324,"367":-0.2103416919708252,"368":0.43948855996131897,"369":0.18035617470741272,"370":-0.09459201246500015,"371":0.04397488385438919,"372":-0.1886424869298935,"373":0.24946942925453186,"374":0.4151577353477478,"375":-0.04797029495239258,"376":-0.3622649908065796,"377":0.4335501492023468,"378":0.22721843421459198,"379":-0.38745060563087463,"380":0.4484328031539917,"381":0.013056889176368713,"382":-0.18184742331504822,"383":-0.22978191077709198,"384":-0.040414560586214066,"385":0.4302685260772705,"386":0.10393527895212173,"387":-0.48859137296676636,"388":-0.04469519481062889,"389":-0.19014662504196167,"390":-0.26338914036750793,"391":0.15238016843795776,"392":-0.16585998237133026,"393":-0.00446970434859395,"394":0.543907642364502,"395":0.6358590722084045,"396":0.6740879416465759,"397":0.35463207960128784,"398":0.06635785102844238,"399":-0.699160635471344,"400":-0.3349542021751404,"401":-0.10032536089420319,"402":0.49072301387786865,"403":-0.6126711368560791,"404":0.058370623737573624,"405":-0.31247732043266296,"406":0.21246838569641113,"407":0.090155690908432,"408":0.2969239354133606,"409":0.4346144199371338,"410":-0.44528162479400635,"411":0.02987997606396675,"412":-0.35843968391418457,"413":-0.20949521660804749,"414":-0.0366707481443882,"415":-0.4170553386211395,"416":0.03444424644112587,"417":-0.5990393161773682,"418":0.0031907777301967144,"419":0.6037148237228394,"420":0.07163069397211075,"421":-0.2604796588420868,"422":0.021957727149128914,"423":-0.6786794662475586,"424":-0.09882671386003494,"425":-0.009826411493122578,"426":-0.018667226657271385,"427":0.20198744535446167,"428":-0.037799376994371414,"429":0.28014349937438965,"430":0.03879646956920624,"431":-0.10399830341339111,"432":0.548355221748352,"433":0.20921637117862701,"434":0.028556501492857933,"435":-0.1438751220703125,"436":-0.12906061112880707,"437":0.06281428039073944,"438":-0.02015150710940361,"439":-0.02311050519347191,"440":-0.47118616104125977,"441":-0.09247765690088272,"442":0.15187741816043854,"443":0.4032997786998749,"444":-0.11551305651664734,"445":-0.5004203915596008,"446":0.0837797299027443,"447":-0.0495094396173954,"448":-0.4724331200122833,"449":-0.1265125423669815,"450":-0.07942235469818115,"451":0.3824407756328583,"452":0.054009389132261276,"453":0.10166242718696594,"454":0.06986328214406967,"455":-0.09422991424798965,"456":-0.6998100876808167,"457":0.0891607329249382,"458":-0.5464926958084106,"459":-0.5636599659919739,"460":0.09428806602954865,"461":-0.5817659497261047,"462":0.5553431510925293,"463":-0.43437376618385315,"464":0.2359553575515747,"465":-0.9977376461029053,"466":-0.3262273669242859,"467":1.1880710124969482,"468":0.25245311856269836,"469":0.6900831460952759,"470":0.010473445057868958,"471":0.710589587688446,"472":-0.03845487907528877,"473":0.38386210799217224,"474":-1.25819730758667,"475":-0.6899266242980957,"476":0.15174835920333862,"477":0.4019368290901184,"478":0.00923154316842556,"479":-0.19991396367549896,"480":-0.4598533511161804,"481":1.1206377744674683,"482":-0.412016898393631,"483":-0.9192418456077576,"484":-0.36880579590797424,"485":0.5304847955703735,"486":0.29826435446739197,"487":0.39339298009872437,"488":0.8929882645606995,"489":-0.08920982480049133,"490":-0.21227553486824036,"491":-0.18925741314888,"492":-0.1755681186914444,"493":-0.03919447213411331,"494":-0.029897868633270264,"495":-0.034741632640361786,"496":-0.2684732973575592,"497":0.4332939088344574,"498":-0.3275374472141266,"499":-0.07502005249261856,"500":0.5009663701057434,"501":-0.17788706719875336,"502":0.4453714191913605,"503":0.23695223033428192,"504":-0.14795444905757904,"505":-0.06864922493696213,"506":0.024679770693182945,"507":0.19842490553855896,"508":-0.2023105025291443,"509":-0.0032921633683145046,"510":-0.44170084595680237,"511":0.2031925469636917,"512":0.05448559671640396,"513":0.20960752665996552,"514":0.20056359469890594,"515":0.4017319083213806,"516":0.24394497275352478,"517":-0.29946306347846985,"518":-0.16993489861488342,"519":-0.20169329643249512,"520":-0.18939262628555298,"521":0.26846033334732056,"522":0.0012382997665554285,"523":0.4406631588935852,"524":0.03961567208170891,"525":-0.8502207398414612,"526":1.0119009017944336,"527":-0.3037303686141968,"528":0.8969390988349915,"529":-0.1953580379486084,"530":0.2560640573501587,"531":0.19198215007781982,"532":0.4987761676311493,"533":0.2506549656391144,"534":0.025580773130059242,"535":-0.5059465765953064,"536":0.4328412711620331,"537":-0.5374819040298462,"538":-0.32320502400398254,"539":0.41759321093559265,"540":0.42224031686782837,"541":0.0018851058557629585,"542":0.06579210609197617,"543":0.4107845723628998,"544":0.1637597233057022,"545":0.11680888384580612,"546":0.12847307324409485,"547":-0.5060383081436157,"548":-0.9248005151748657,"549":0.6700920462608337,"550":0.48861783742904663,"551":-0.42030274868011475,"552":-0.13458094000816345,"553":0.2208641916513443,"554":0.20093373954296112,"555":0.4494841992855072,"556":-0.5168800354003906,"557":-0.6055079102516174,"558":-0.1401708722114563,"559":-0.3693189322948456,"560":0.03743681684136391,"561":0.5870327353477478,"562":-0.48299553990364075,"563":0.10010829567909241,"564":0.12668970227241516,"565":0.08388450741767883,"566":0.07847680151462555,"567":0.3813481628894806,"568":0.5611979961395264,"569":0.12931162118911743,"570":0.38933324813842773,"571":0.3834165036678314,"572":0.1770791858434677,"573":0.5054828524589539,"574":0.013291565701365471,"575":-0.2720339000225067,"576":-0.21165397763252258,"577":-0.25911369919776917,"578":-0.7219629883766174,"579":0.11015979945659637,"580":-0.43998610973358154,"581":0.4562762975692749,"582":-0.5712332129478455,"583":0.06172969192266464,"584":0.4089452922344208,"585":-0.36793825030326843,"586":0.12369028478860855,"587":-0.32569923996925354,"588":-1.0182783603668213,"589":-0.2016674280166626,"590":-0.382161408662796,"591":0.46168026328086853,"592":-0.3896651566028595,"593":-0.05751694366335869,"594":0.07365814596414566,"595":0.14897294342517853,"596":-0.11813680082559586,"597":-0.08606010675430298,"598":-0.05184079334139824,"599":-0.3350240886211395,"600":-0.03458777442574501,"601":0.011292989365756512,"602":0.23005883395671844,"603":0.14741410315036774,"604":0.21904994547367096,"605":0.20470668375492096,"606":0.303305059671402,"607":0.3994353413581848,"608":0.5083734393119812,"609":-0.2874561846256256,"610":-0.5062392950057983,"611":0.28609123826026917,"612":-0.07525653392076492,"613":-0.11922258883714676,"614":-0.17820408940315247,"615":-0.6039978861808777,"616":0.1953907012939453,"617":-0.25139498710632324,"618":0.41301196813583374,"619":0.2868677079677582,"620":-0.27527424693107605,"621":0.22102035582065582,"622":-0.10801837593317032,"623":-0.6002904772758484,"624":-0.43312251567840576,"625":-0.05569302290678024,"626":0.3818490207195282,"627":-0.001081853173673153,"628":0.1280793845653534,"629":-0.031537026166915894,"630":-0.12764696776866913,"631":-0.050257958471775055,"632":-0.11481330543756485,"633":0.3739718794822693,"634":0.039470162242650986,"635":-0.17013150453567505,"636":0.2211751788854599,"637":-0.28170445561408997,"638":0.45758864283561707,"639":-0.06036372110247612,"640":0.06958826631307602,"641":0.22917819023132324,"642":-0.2666325271129608,"643":-0.0515790693461895,"644":0.04919229447841644,"645":-0.3019033670425415,"646":-0.10322604328393936,"647":0.06264440715312958,"648":-0.36786651611328125,"649":0.4457399249076843,"650":-0.23889049887657166,"651":-0.15765933692455292,"652":-0.10287418216466904,"653":0.06943158805370331,"654":0.09450887888669968,"655":-0.12528739869594574,"656":-0.4032297134399414,"657":-0.18102024495601654,"658":0.017549702897667885,"659":0.03705577924847603,"660":0.1125875860452652,"661":0.08360513299703598,"662":-0.06460917741060257,"663":-0.37242627143859863,"664":0.06020057573914528,"665":-0.025089584290981293,"666":-0.6398165822029114,"667":-0.1156415045261383,"668":-0.5185562372207642,"669":-0.5247407555580139,"670":0.36373651027679443,"671":-0.5119733214378357,"672":0.41430747509002686,"673":-0.4900331199169159,"674":0.0221438966691494,"675":-0.06023351103067398,"676":-0.23822255432605743,"677":0.7579935193061829,"678":1.160783052444458,"679":-0.39952120184898376,"680":-0.5503733158111572,"681":0.7287603616714478,"682":-0.39822977781295776,"683":0.27289676666259766,"684":-0.6829638481140137,"685":-0.9155460596084595,"686":0.2557239234447479,"687":0.06602326035499573,"688":0.6655797362327576,"689":-0.06226871907711029,"690":-0.19217029213905334,"691":0.4312988519668579,"692":-0.043589238077402115,"693":-0.8173586130142212,"694":-1.295583963394165,"695":-0.11428490281105042,"696":1.0724221467971802,"697":0.5783666372299194,"698":0.6540612578392029,"699":0.03553497791290283}},"forgetHidden":{"rows":20,"columns":20,"weights":{"0":-0.0556194894015789,"1":0.0050294408574700356,"2":0.5900315046310425,"3":-0.5893664956092834,"4":0.03728406876325607,"5":0.3065623641014099,"6":-0.03445171192288399,"7":-0.22725196182727814,"8":-0.4046468436717987,"9":-0.1545102596282959,"10":-0.11734350025653839,"11":0.279359370470047,"12":-0.15882812440395355,"13":-0.14575621485710144,"14":0.0813848227262497,"15":-0.0652228593826294,"16":0.6819562911987305,"17":0.08142375200986862,"18":0.36845269799232483,"19":0.4713355004787445,"20":0.2450529932975769,"21":0.015763280913233757,"22":-0.31695660948753357,"23":0.39291271567344666,"24":0.37117457389831543,"25":-0.12059398740530014,"26":-0.11199307441711426,"27":0.09701783210039139,"28":0.15140901505947113,"29":-0.05263102054595947,"30":0.1068914532661438,"31":0.07395663857460022,"32":0.023341117426753044,"33":0.015589751303195953,"34":-0.17788167297840118,"35":0.09775613248348236,"36":-0.14255206286907196,"37":-0.18830309808254242,"38":-0.2133503258228302,"39":0.48845869302749634,"40":-0.528960645198822,"41":0.15030324459075928,"42":0.7300693988800049,"43":0.08770959824323654,"44":0.13236647844314575,"45":-0.1336849182844162,"46":0.7090327739715576,"47":-0.09260562062263489,"48":0.07211830466985703,"49":-0.48499247431755066,"50":-0.95270836353302,"51":-0.5261331796646118,"52":0.11866676807403564,"53":-0.14671920239925385,"54":-0.6924033761024475,"55":-0.7524936199188232,"56":0.1551099568605423,"57":-0.25493136048316956,"58":0.09939266741275787,"59":0.20243574678897858,"60":0.1949717104434967,"61":-0.24832867085933685,"62":-0.05715899541974068,"63":0.5968811511993408,"64":-0.024061916396021843,"65":-0.06227870658040047,"66":-0.05158049613237381,"67":-0.03679177165031433,"68":-0.1869039684534073,"69":-0.3048458993434906,"70":-0.07283823192119598,"71":-0.23948249220848083,"72":0.13136768341064453,"73":0.0270420890301466,"74":-0.1288466453552246,"75":-0.24973155558109283,"76":-0.5961939692497253,"77":-0.14194287359714508,"78":0.029932724311947823,"79":-0.16411910951137543,"80":-0.26674267649650574,"81":-0.5507776737213135,"82":-0.11857017874717712,"83":0.6130568385124207,"84":0.646365225315094,"85":-0.7140225768089294,"86":0.6385141015052795,"87":0.7392913699150085,"88":0.6757368445396423,"89":-0.6653556227684021,"90":0.034199029207229614,"91":-0.7765794396400452,"92":0.38145390152931213,"93":-0.32934799790382385,"94":-0.500317394733429,"95":0.23981541395187378,"96":-0.5929520130157471,"97":-1.078298807144165,"98":-0.9388278722763062,"99":0.24262337386608124,"100":0.19363878667354584,"101":-0.4572747051715851,"102":-0.22152966260910034,"103":-0.02639193832874298,"104":0.37053781747817993,"105":-0.2844110131263733,"106":0.15402550995349884,"107":0.4099544584751129,"108":0.47919896245002747,"109":-0.20472101867198944,"110":-0.3096736669540405,"111":-0.07065202295780182,"112":0.15412676334381104,"113":-0.1441642940044403,"114":-0.10398698598146439,"115":0.2239203006029129,"116":-0.10833143442869186,"117":-0.21199944615364075,"118":-0.5094230771064758,"119":-0.001864038989879191,"120":0.3686072826385498,"121":0.31013980507850647,"122":0.34518691897392273,"123":0.23244734108448029,"124":0.36077046394348145,"125":-0.23754221200942993,"126":-0.012720506638288498,"127":-0.03113519959151745,"128":0.017052656039595604,"129":-0.002486992394551635,"130":0.14618144929409027,"131":0.021593479439616203,"132":-0.10320483893156052,"133":-0.15127627551555634,"134":0.11126545071601868,"135":-0.08889229595661163,"136":-0.09809494763612747,"137":-0.013823197223246098,"138":-0.02894502319395542,"139":0.297883540391922,"140":0.11979684233665466,"141":-0.29673081636428833,"142":0.022761145606637,"143":0.326604425907135,"144":0.264206200838089,"145":-0.044137582182884216,"146":-0.06832727789878845,"147":0.37330010533332825,"148":0.14031092822551727,"149":0.3245238661766052,"150":0.089043028652668,"151":-0.5041514039039612,"152":0.18785715103149414,"153":0.0346253365278244,"154":0.0812736377120018,"155":-0.47899773716926575,"156":-0.48588424921035767,"157":-0.20948426425457,"158":-0.2132200002670288,"159":-0.5666868090629578,"160":-0.3268948495388031,"161":-0.11913741379976273,"162":0.30614379048347473,"163":-0.9030397534370422,"164":0.20464640855789185,"165":-0.005530556198209524,"166":0.4134007692337036,"167":0.10749303549528122,"168":0.3082825839519501,"169":0.574651837348938,"170":-0.10219674557447433,"171":-0.4506826102733612,"172":0.04107467830181122,"173":0.5023528337478638,"174":0.396321564912796,"175":-0.4854035973548889,"176":0.2809966504573822,"177":-0.34523478150367737,"178":-0.2234622687101364,"179":-0.5278381109237671,"180":-0.5288229584693909,"181":0.6207576990127563,"182":0.8618132472038269,"183":-0.3662485182285309,"184":0.5795504450798035,"185":-0.25362107157707214,"186":-0.37494635581970215,"187":0.32495102286338806,"188":0.15970444679260254,"189":-0.4517412781715393,"190":0.1323356181383133,"191":0.3534565269947052,"192":-0.2667413353919983,"193":-0.33269885182380676,"194":-0.1757229119539261,"195":-1.0530955791473389,"196":0.3689447045326233,"197":-0.4056658446788788,"198":-0.13593825697898865,"199":0.11312656104564667,"200":-0.5306427478790283,"201":0.24951381981372833,"202":0.18441279232501984,"203":-0.3235410451889038,"204":0.4390122890472412,"205":0.09246940910816193,"206":-0.34467002749443054,"207":0.0417448915541172,"208":-0.08496088534593582,"209":0.026030657812952995,"210":-0.06958082318305969,"211":-0.1040400043129921,"212":-0.1581108123064041,"213":-0.8136772513389587,"214":0.025511939078569412,"215":-0.9183858633041382,"216":0.3787268400192261,"217":0.25830191373825073,"218":-0.03357674553990364,"219":-0.062213487923145294,"220":0.4739472270011902,"221":0.39993903040885925,"222":-0.18892160058021545,"223":0.5996074080467224,"224":-0.3489978015422821,"225":0.40019258856773376,"226":-0.05491090938448906,"227":-0.04803517460823059,"228":-0.0797400251030922,"229":0.2028040587902069,"230":0.40290507674217224,"231":-0.1323695331811905,"232":-0.22653187811374664,"233":-0.10034916549921036,"234":0.14222581684589386,"235":-0.0945376306772232,"236":-0.2682119607925415,"237":0.3232908546924591,"238":0.010377299971878529,"239":-0.24068759381771088,"240":0.2960939109325409,"241":0.5869985818862915,"242":0.16710393130779266,"243":0.5428391695022583,"244":-0.5712426900863647,"245":-0.011231142096221447,"246":0.13528966903686523,"247":0.04691983386874199,"248":-0.05798381567001343,"249":-0.40224823355674744,"250":0.13385765254497528,"251":-0.08334841579198837,"252":0.11498521268367767,"253":-0.39903295040130615,"254":0.19482585787773132,"255":-0.6465171575546265,"256":-0.44452306628227234,"257":0.126649871468544,"258":-0.07107660174369812,"259":0.19289323687553406,"260":-0.3270321190357208,"261":0.16881678998470306,"262":0.42900407314300537,"263":-0.31471648812294006,"264":-0.20320552587509155,"265":0.31202250719070435,"266":-0.19191713631153107,"267":-0.00732822809368372,"268":-0.32516106963157654,"269":-0.07835345715284348,"270":0.12028974294662476,"271":-0.08988887071609497,"272":-0.3454352915287018,"273":-0.35700786113739014,"274":0.055499739944934845,"275":-0.751272976398468,"276":0.33012041449546814,"277":0.44895440340042114,"278":0.10663750022649765,"279":-0.13652904331684113,"280":-0.27488261461257935,"281":0.3415597081184387,"282":0.22674298286437988,"283":-0.44851985573768616,"284":0.40485987067222595,"285":0.1254064440727234,"286":0.18329110741615295,"287":-0.07550486922264099,"288":-0.14269496500492096,"289":-0.4106141924858093,"290":-0.08314026147127151,"291":0.1666121631860733,"292":-0.10121287405490875,"293":-0.6054707169532776,"294":-0.4512160122394562,"295":-1.1762173175811768,"296":0.41604965925216675,"297":0.05786009505391121,"298":0.07389576733112335,"299":0.7851524949073792,"300":0.14638881385326385,"301":-0.26568281650543213,"302":-0.28474724292755127,"303":-0.5928016304969788,"304":0.06714582443237305,"305":0.10983560979366302,"306":-0.2461744099855423,"307":0.022776151075959206,"308":-0.13953536748886108,"309":0.3769448697566986,"310":-0.35024765133857727,"311":-0.24016286432743073,"312":0.27010661363601685,"313":0.20872676372528076,"314":0.2766261398792267,"315":-0.1158059686422348,"316":0.1385016143321991,"317":-0.1038217842578888,"318":0.05490366742014885,"319":-0.037050485610961914,"320":0.0792229175567627,"321":-0.15106183290481567,"322":-0.18792811036109924,"323":0.45232445001602173,"324":-0.16818256676197052,"325":-0.03768405318260193,"326":0.09353335946798325,"327":0.033490635454654694,"328":-0.07173681259155273,"329":-0.18615353107452393,"330":-0.13569122552871704,"331":-0.2707843780517578,"332":0.0345073901116848,"333":0.09444122016429901,"334":-0.0313267782330513,"335":-0.17948754131793976,"336":-0.42603233456611633,"337":-0.08433503657579422,"338":0.06416375935077667,"339":-0.40607914328575134,"340":0.014287300407886505,"341":-0.30508628487586975,"342":-0.031394097954034805,"343":-0.03882088512182236,"344":0.6360618472099304,"345":-0.143683061003685,"346":0.16104084253311157,"347":0.18420495092868805,"348":0.2659624218940735,"349":-0.3421173095703125,"350":-0.03686605766415596,"351":-0.2737440764904022,"352":0.2568463385105133,"353":0.07251637428998947,"354":-0.48606425523757935,"355":0.023914873600006104,"356":0.2058543711900711,"357":-0.3869829475879669,"358":-0.22482839226722717,"359":-0.055929508060216904,"360":-0.13011768460273743,"361":-0.3064861297607422,"362":-0.04978466406464577,"363":0.178433358669281,"364":0.5059301257133484,"365":-0.08811791241168976,"366":-0.31150150299072266,"367":0.32153815031051636,"368":0.22631078958511353,"369":0.22391489148139954,"370":0.17181754112243652,"371":-0.4196886122226715,"372":0.12182079255580902,"373":-0.11368381977081299,"374":0.00809317547827959,"375":-0.8775777816772461,"376":-0.5074490308761597,"377":-0.3717920780181885,"378":-0.35997849702835083,"379":-0.4931926131248474,"380":0.013006092049181461,"381":0.2745552957057953,"382":0.27993297576904297,"383":-0.14694035053253174,"384":0.26770925521850586,"385":-0.02903912030160427,"386":-0.038721393793821335,"387":0.013189096003770828,"388":0.05151614174246788,"389":-0.17808358371257782,"390":0.3241824805736542,"391":0.11493902653455734,"392":-0.1827014833688736,"393":-0.23090136051177979,"394":-0.29408565163612366,"395":-0.6450945138931274,"396":0.46174106001853943,"397":-0.11028370261192322,"398":-0.20699799060821533,"399":0.4492166042327881}},"forgetBias":{"rows":20,"columns":1,"weights":{"0":0,"1":0,"2":0,"3":0,"4":0,"5":0,"6":0,"7":0,"8":0,"9":0,"10":0,"11":0,"12":0,"13":0,"14":0,"15":0,"16":0,"17":0,"18":0,"19":0}},"outputMatrix":{"rows":20,"columns":35,"weights":{"0":0.04620848596096039,"1":-0.5069105625152588,"2":0.6265182495117188,"3":-0.1753477156162262,"4":0.4887644648551941,"5":-0.5124593377113342,"6":0.2029685527086258,"7":-0.07142085582017899,"8":-0.2339000403881073,"9":-0.43785524368286133,"10":0.4135390520095825,"11":-0.49834173917770386,"12":-0.038655154407024384,"13":-0.5076367855072021,"14":-0.22987432777881622,"15":0.26736903190612793,"16":-0.3401694595813751,"17":0.008869276382029057,"18":-0.43214187026023865,"19":0.42973676323890686,"20":0.5765174031257629,"21":-0.5906181931495667,"22":0.36518043279647827,"23":0.01397863868623972,"24":-0.7893691658973694,"25":-0.15388260781764984,"26":-0.03202684596180916,"27":-0.24842087924480438,"28":0.5982755422592163,"29":0.2656536102294922,"30":-0.37364304065704346,"31":-0.3445456326007843,"32":-0.021239513531327248,"33":0.04933323338627815,"34":-0.3230701982975006,"35":0.3119630217552185,"36":-0.8232302665710449,"37":0.4267478585243225,"38":-0.6773501634597778,"39":-0.011377689428627491,"40":-0.7539052963256836,"41":0.16592872142791748,"42":-0.284696102142334,"43":-0.091895192861557,"44":0.2575717270374298,"45":0.37334489822387695,"46":-0.41854676604270935,"47":0.42425116896629333,"48":-0.23121030628681183,"49":-0.11665558815002441,"50":0.7074982523918152,"51":-0.15404729545116425,"52":0.2579341530799866,"53":0.44596901535987854,"54":-0.006991382222622633,"55":0.6464534997940063,"56":-0.585144579410553,"57":0.16852673888206482,"58":-0.2558627724647522,"59":-0.32145369052886963,"60":-0.23713862895965576,"61":-0.3472863435745239,"62":0.24321408569812775,"63":-0.004129727836698294,"64":0.16634884476661682,"65":-0.38522446155548096,"66":-0.5081800818443298,"67":-0.19453753530979156,"68":0.11967545002698898,"69":-0.16096484661102295,"70":0.16061317920684814,"71":-0.025730697438120842,"72":0.5083293914794922,"73":-0.022837253287434578,"74":0.10549164563417435,"75":-0.4743129014968872,"76":0.43255889415740967,"77":-0.2815505564212799,"78":0.20001162588596344,"79":-0.3893132209777832,"80":-0.14608989655971527,"81":-0.25115615129470825,"82":-0.15135060250759125,"83":-0.3926711678504944,"84":0.07723619788885117,"85":0.186981201171875,"86":-0.1392611712217331,"87":-0.18864628672599792,"88":-0.1542993187904358,"89":0.36947742104530334,"90":0.3650500178337097,"91":-0.21348783373832703,"92":0.08242800086736679,"93":0.1168580874800682,"94":-0.46879062056541443,"95":-0.23065878450870514,"96":-0.023371627554297447,"97":-0.3596858084201813,"98":0.5342604517936707,"99":0.36522209644317627,"100":0.13188815116882324,"101":-0.4376893639564514,"102":0.2304060310125351,"103":-0.3997679650783539,"104":-0.16295069456100464,"105":-0.38094499707221985,"106":0.42492836713790894,"107":-0.19832181930541992,"108":-0.04143688455224037,"109":-0.1870751827955246,"110":0.4131781756877899,"111":-0.04356689751148224,"112":0.5057076811790466,"113":0.05574981868267059,"114":-0.1051860824227333,"115":-0.07879585027694702,"116":-0.025713982060551643,"117":-0.13708196580410004,"118":0.40621039271354675,"119":0.09563800692558289,"120":-0.17929822206497192,"121":-0.02509305067360401,"122":-0.33961302042007446,"123":-0.1492781639099121,"124":-0.20324814319610596,"125":-0.23773227632045746,"126":0.34233179688453674,"127":-0.09311402589082718,"128":0.011328461579978466,"129":0.17033033072948456,"130":0.2896011769771576,"131":0.1535535752773285,"132":0.06363686919212341,"133":0.029786841943860054,"134":-0.4603922963142395,"135":0.09881957620382309,"136":0.23530134558677673,"137":0.039096225053071976,"138":0.05096646025776863,"139":-0.19613641500473022,"140":0.5968844890594482,"141":-0.44047749042510986,"142":0.39288008213043213,"143":-0.9732955694198608,"144":-0.26072368025779724,"145":-0.023105645552277565,"146":-0.07369421422481537,"147":-0.07696713507175446,"148":-0.22082684934139252,"149":0.15468336641788483,"150":0.07886947691440582,"151":-0.21273411810398102,"152":0.005026442464441061,"153":0.4310648739337921,"154":-0.2849724292755127,"155":0.2949753701686859,"156":-0.11949031800031662,"157":-0.21451786160469055,"158":0.31247007846832275,"159":-0.5124598741531372,"160":0.00438186340034008,"161":-0.4757339656352997,"162":-0.018948020413517952,"163":0.3615744113922119,"164":-0.11998846381902695,"165":0.0113913519307971,"166":-0.158236563205719,"167":0.18715578317642212,"168":0.017534583806991577,"169":-0.3175058364868164,"170":-0.4683130383491516,"171":-0.10462771356105804,"172":0.570358157157898,"173":0.07315323501825333,"174":-0.09742657095193863,"175":0.46418893337249756,"176":-0.6464641094207764,"177":0.32179170846939087,"178":-0.3076348602771759,"179":-0.24037083983421326,"180":-0.4788907766342163,"181":-0.09449995309114456,"182":-0.3616325557231903,"183":0.12219313532114029,"184":-0.024748055264353752,"185":0.10267017781734467,"186":0.010387684218585491,"187":0.28623729944229126,"188":0.36822330951690674,"189":-0.22443810105323792,"190":-0.006069987080991268,"191":0.40640732645988464,"192":-0.02422281727194786,"193":0.3302607834339142,"194":0.09292300790548325,"195":-0.14921022951602936,"196":-0.3428453505039215,"197":0.11188741028308868,"198":0.19669365882873535,"199":-0.1095225140452385,"200":-0.1348789632320404,"201":0.024294110015034676,"202":-0.1462405025959015,"203":-0.1024358719587326,"204":-0.2418634295463562,"205":-0.1737496256828308,"206":0.23231497406959534,"207":0.008962390944361687,"208":0.01979944109916687,"209":0.07562823593616486,"210":0.40746092796325684,"211":0.025008855387568474,"212":0.3077927827835083,"213":-0.48094022274017334,"214":0.00005063463686383329,"215":0.3333547115325928,"216":-0.025013746693730354,"217":0.4623126983642578,"218":-0.014064693823456764,"219":0.37020301818847656,"220":-0.22811610996723175,"221":0.22233527898788452,"222":-0.1555606722831726,"223":0.43432363867759705,"224":-0.24585294723510742,"225":-0.24498912692070007,"226":0.08757263422012329,"227":-0.06762569397687912,"228":0.16370853781700134,"229":-0.36405327916145325,"230":-0.22026671469211578,"231":-0.3704405426979065,"232":-0.2528209686279297,"233":0.6541900634765625,"234":-0.2855875790119171,"235":-0.515846312046051,"236":0.0956246480345726,"237":0.23425346612930298,"238":0.1430443525314331,"239":-0.35309886932373047,"240":-0.316741943359375,"241":0.30826911330223083,"242":0.15287892520427704,"243":0.09858748316764832,"244":-0.3488830029964447,"245":-0.034543830901384354,"246":-0.2927528917789459,"247":0.1435295045375824,"248":-0.3676365911960602,"249":-0.3801414370536804,"250":0.15567463636398315,"251":0.23775482177734375,"252":-0.05227755755186081,"253":-0.502133309841156,"254":-0.24302101135253906,"255":-0.20230701565742493,"256":-0.21974103152751923,"257":0.11515714228153229,"258":0.25483766198158264,"259":-0.34576135873794556,"260":-0.052028756588697433,"261":0.15259167551994324,"262":-0.3570731580257416,"263":0.2846886217594147,"264":-0.29332390427589417,"265":0.1148303896188736,